function [Y,Xf,Af] = myNeuralNetworkFunction(X,~,~)
%MYNEURALNETWORKFUNCTION neural network simulation function.
%
% Generated by Neural Network Toolbox function genFunction, 19-Feb-2018 18:41:42.
%
% [Y] = myNeuralNetworkFunction(X,~,~) takes these arguments:
%
%   X = 1xTS cell, 1 inputs over TS timesteps
%   Each X{1,ts} = Qx83 matrix, input #1 at timestep ts.
%
% and returns:
%   Y = 1xTS cell of 1 outputs over TS timesteps.
%   Each Y{1,ts} = Qx4 matrix, output #1 at timestep ts.
%
% where Q is number of samples (or series) and TS is the number of timesteps.

%#ok<*RPMT0>

% ===== NEURAL NETWORK CONSTANTS =====

% Input 1
x1_step1.xoffset = [0;0;0;0;0;0;0;0;0;0;0;0;0;0;0;0;0;0;0;0;0;0;0;0;0;0;0;0;0;0;0;0;0;0;0;0;0;0;0;0;0;0;0;0;0;0;0;0;0;0;0;0;0;0;0;0;0;0;0;0;0;0;0;0;0;0;0;0;0;0;0;0;0;0;0;0;0;0;0;0;0;0;0];
x1_step1.gain = [4.81927710843373e-05;4.75059382422803e-05;4.76190476190476e-05;4.79616306954436e-05;4.75059382422803e-05;4.98753117206983e-05;4.87804878048781e-05;4.78468899521531e-05;4.92610837438424e-05;0.000132450331125828;0.000132450331125828;0.000132450331125828;0.000132450331125828;0.000132450331125828;0.000132450331125828;0.000132450331125828;0.000132450331125828;0.000132450331125828;0.000132450331125828;0.000132450331125828;0.000132450331125828;0.000132450331125828;0.000132450331125828;0.000132450331125828;0.000132450331125828;0.000132450331125828;0.000132450331125828;0.000133333333333333;0.000132450331125828;0.000132450331125828;0.000132450331125828;0.000132450331125828;0.000134228187919463;0.000132450331125828;0.000264200792602378;0.000264200792602378;0.000264200792602378;0.000264200792602378;0.000264200792602378;0.000264200792602378;0.000264200792602378;0.000264200792602378;0.000264200792602378;0.000264200792602378;0.000264200792602378;0.000264200792602378;0.000264200792602378;0.000264200792602378;0.000264200792602378;0.000264200792602378;0.000264200792602378;0.000264200792602378;0.000264200792602378;0.000264200792602378;0.000264200792602378;0.000264200792602378;0.000264200792602378;0.000264200792602378;0.000264200792602378;0.000264200792602378;0.000264200792602378;0.000264200792602378;0.000264200792602378;0.000264200792602378;0.000264200792602378;0.000264200792602378;0.000264200792602378;0.000264200792602378;0.000264200792602378;0.000264200792602378;0.000264200792602378;0.000264200792602378;0.000264200792602378;0.000264200792602378;0.000264200792602378;0.000264200792602378;0.000264200792602378;0.000264200792602378;0.000264200792602378;0.000264200792602378;0.000264200792602378;0.000264200792602378;0.000264200792602378];
x1_step1.ymin = -1;

% Layer 1
b1 = [-2.1045402534311206111;-1.8118035117030382164;-2.1861357794168472246;0.99436716679950232223;0.98622932323719902925;-0.98702782930703603093;1.2176358647955467518;-0.69953245315593604037;0.35500900956923864271;0.79721386643561309437;-0.6439846731803133828;1.1373654499187388911;-0.89032189737104783234;0.3394811380056017569;0.23317178100027902143;-0.4406536265154920029;0.50553712817929763457;1.1319946692616762451;1.6341574832018319618;-0.74105236175080890781;0.77433114626660715096;1.1929568913760175697;-1.3359599716658558943;1.5392298457409547829;2.3147891758588645672];
IW1_1 = [0.1639560706697375525 -0.48594194228996667739 -0.22310381380963587028 -0.020583112387216336014 0.27435035445251620967 -0.015144435400278851225 -0.13304823909359630996 0.20135847865653785926 -0.3031024124165697109 -0.18964518490118603689 -0.088653863236667199144 -0.49695103196658518829 0.24324354249904048264 0.63662884859431045914 0.04587484776137761705 0.30036114285893023013 -0.66463282822616986945 -0.088559011788154437528 0.00096115415584135054615 0.46003956531052841994 0.036233942906471076906 0.041845614794227804778 0.33447283660561277774 0.029871532211207887236 0.14432342948878640332 -0.093944961061470350083 0.032695098164420136055 -0.37340064173279996496 0.0016196032015832414769 -0.11792087915867553727 0.032965996126548498257 0.60310947364757683253 -0.1787661298296460699 -0.17068852416014740347 -0.15586429502778292866 -0.05256664654031122097 -0.73497315617340130967 -0.22466938801149979876 0.75800754577727347261 -0.033809749881363454493 -0.19797540413707057083 0.047693071435001663239 0.15500657508188847578 -0.19921902482211140128 -0.3176285480745238976 -0.050299865040770649904 -0.23889983868869069106 0.58512338487762594053 0.50897679435257425773 0.47694544114483600206 -0.10435507641460048389 -0.23376820332769396305 0.3235609113627480049 -0.29342747043977057686 0.28975550112576370365 0.30351159924706327953 -0.20657281357910378672 -0.6267070329560014974 0.35537746134723685598 0.50065426363236975593 -0.17114094503632090727 0.0090513234720198208066 -0.25134830357692489189 -0.24467433818070902229 0.051180925391238314692 0.13949915297455947605 -0.48453353693383460765 -0.084477786172875352078 0.18724894535006697538 -0.58969561832237649135 0.35895521355930221086 0.3947165546168741046 0.17790835560799039827 -0.13423387045292017872 0.26263301287291201946 -0.23892655197711437642 -0.14456743746321909505 -0.15904588567967492541 0.32783730998579641014 -0.53871221382359013585 -0.20011900180481989597 -0.32524245972663506921 -0.62783051118924593226;0.10218897586745344375 0.17516873281656031303 0.08246076736252475059 0.18201158008893539297 -0.039182212716330711011 -0.012099762134015394285 0.12199491562806746847 0.15515125410653632376 -0.2364502325733662258 0.11268167360520869869 0.10103580209728332817 -0.12349815648747351771 0.41340218906505438179 -0.1416230584173742979 0.045468578791552125007 -0.1914055488175995523 0.15690363889571079525 -0.2083638662336167735 0.073426459656668732756 0.018149604344690824231 0.18729515582785244421 -0.054296842480363170791 0.222826168080528908 0.43650430636816611729 0.20005225439421414624 0.021265963976171961547 0.0094621768037761403575 0.19471282908162579339 0.16685933690283424879 0.021948185306297357533 -0.18269722943878430321 -0.091042643063822772942 0.043632897233001760595 0.011288167295670366655 0.24484150423281847431 -0.30253799043455975593 0.099891506807283286795 -0.0059654983610911193129 0.13686980732614570377 -0.16170392779122427784 -0.26406742070710564896 0.2227104696615083701 -0.040722976791398315943 -0.13896453758783886001 -0.048306245865308725107 0.18062095472202008284 -0.23664074098704970806 0.41082985085803619407 0.21036831163330960148 -0.43056690127139141122 0.019205573893326000068 0.21037850465269489209 0.011887223018958205378 0.036266371597192474663 -0.031706332000160174223 0.096502377234167394104 -0.073534688933664549282 0.061459037897447339749 -0.045381251245299944475 0.18616676008228766337 0.029696860693466269054 0.17802759827741018728 -0.026812062982241598175 -0.27054146885056074012 -0.21248226553107363301 -0.090069653050908138336 0.0764043283233009074 -0.18900520708695361938 0.3201820449622490572 0.19482294559269300316 -0.047094910021040957415 0.23958305395333806542 0.17571366531332641148 -0.036061952187773214928 0.091656225464213411658 -0.11738433988108035178 0.26835651720978470625 -0.35752348814902673579 0.050764126446882724963 0.023977535702026677583 -0.072277766454375821925 0.017282089865380202004 0.22960252285490720392;0.0017773077439742700993 -0.02426793411663431127 -0.055645302361978704608 -0.27143437860006791595 0.33750140343648099561 -0.19558416005513640235 -0.091061428435163516149 -0.0096349311997123085471 -0.016598961057884237952 -0.11346444788335309506 0.11712656453675021617 -0.24561962329341047173 -0.3297591020114497562 0.4610146508485328809 0.041973341503859645796 -0.071871328892528313359 0.045363003664035041196 -0.56938972427243905727 -0.12971490588941267386 0.029141527154097818242 -0.10371063935854936411 -0.014600306051654866543 -0.04789269947772781949 -0.10217767475212638506 0.41459289234530799506 -0.1714812721750483826 -0.025617049242586328872 -0.16071009920576340146 -0.019857141854640728007 -0.033705907564866986748 0.15129387950837319687 -0.026973897842963306948 0.074679155261953233946 0.04825685786861880211 0.36144339782863832422 0.0405988663984215431 -0.11756455432087800639 0.19604876236090437724 -0.066219008406273732747 0.29769049555834270482 0.046898553432531048246 -0.11705669029457209385 -0.76219081113720776877 -0.05250262026026498996 0.14205724412550754798 -0.29983143152539681875 -0.19244976974545804915 0.39089847616910511352 -0.22720018380121209667 -0.38216038155635712048 0.17442658637912408781 0.21303388033142953151 -0.74759353232191350092 -0.30000254035479606562 0.24190817421420582334 -0.2404957696189007621 -0.43149450961870250421 -0.28600758346782623187 0.34918759859826187242 -0.075770975327409131883 -0.31639137883567580722 0.51727618599547076084 -0.058253411210643611662 0.41819851905389554547 -0.92424185139547021528 -0.12746264013772934387 0.26095744446247953752 -0.40566119595979738266 0.18422214005472312137 0.14211074950801746986 0.11176262028756664413 -0.21948719878270495087 0.095068102806071391742 0.11329929085032214298 0.051517233248895420716 0.069170073753924754545 0.16371633671206092808 0.28381833499899045137 0.22574598342471624557 -0.053738709835717053676 -0.12345233181909343045 0.17061767791430335062 0.13262635358260019269;-0.23011481538931191637 0.0022919979488805718171 0.14314608854722779552 -0.15474216487004799347 0.14803393304295556221 -0.22558940229989232762 0.18742309764264553085 0.40723832298439716082 0.20736079650832628385 -0.016757558438331307538 -0.011725310070814037866 -0.19064670664482205598 -0.065859875855005259315 -0.18584714344648825546 0.12010493917907869021 0.15122034249204382994 -0.17176915813190191118 0.2234170597191916241 -0.14749050169510907748 -0.2634360086763066211 0.14555081201217767717 0.1749409929329101554 -0.22013457145775566781 0.15666106023188111629 -0.20649972507629790752 0.41463178264314370924 0.25196471584199120475 -0.11853942405432689455 0.086876187143864178064 -0.062086658799342525628 0.24385897385302596208 0.4125143604375012818 0.16274758366789879305 -0.065402878955591686738 0.07181428266477835054 -0.093100160881890769993 0.12333818260877298101 -0.069699371764704823318 -0.11867110912589151628 0.22142909966748680617 -0.15656157679648916026 -0.11276711400914329886 0.10797917602641277091 -0.17787003549330393515 -0.20358791085275629307 -0.23973456664395173532 -0.13200617028084987714 -0.22063877653102140219 -0.40380095439663532542 -0.28694652612634813371 -0.018488314036542535107 -0.39081538294645018494 0.18280005435117810397 0.2324993402649327412 -0.079921765427679133942 -0.018872332033366630982 -0.10920374944161152786 -0.18213447028426377194 0.15088434842871598085 -0.078811089738396122861 -0.0058472029462118503204 0.23832160211227329527 -0.16221362299327268808 0.045468063860616671212 0.42305053990999563762 -0.13774804301553450481 -0.46831216395562702548 -0.13878785590008521633 -0.41074085234096036068 -0.26710941460839754402 -0.031785168654425148549 0.32199244728456954956 0.50975145942507149588 0.25590277019565599304 0.23620344302346152343 -0.1944577973734263332 -0.49024158025938752159 0.13862802735799328868 0.65757991947770233487 0.3193323750195644628 0.40725861304013211139 0.30604574128377820541 0.070574023475009919903;-0.22324669212398318141 -0.13282054499065581998 0.2005388680499330667 -0.19062806104015905806 0.22453692623348595059 0.20940060069153895728 0.025881467345578914457 -0.067461894630169008669 -0.20398786986433162238 -0.027656839199910611404 -0.36460814382772926967 0.071717115860545979644 -0.20363520618430766551 0.25911498300178803511 0.091435903895184050816 -0.012024136673700424813 0.081686056762534764442 0.18060758317189626321 0.14504210324412655786 0.18144728472375318273 -0.06906973041247707612 0.065670266488767808921 0.018279890367429777603 -0.13737076708602927178 -0.021764647399428575097 0.013565307716105772309 -0.10901874174093370562 0.091004240388473059409 -0.072415820376688450066 -0.05398724606878846366 0.079522320248571740087 -0.20386822778523563948 0.21707996728842465783 0.30009501956114875698 -0.15709322232085615179 -0.20306621244622202749 -0.073366407979293862818 -0.18133566014475521744 0.001043150995182643391 -0.050782581819961307434 0.17172894558302265189 -0.072376577958332494189 0.11948752265680709361 -0.094641372474413607008 -0.19397940117727605069 0.012163429854974537256 -0.45123494874490233109 0.20047337946025275968 -0.1954604048843612274 -0.15497104301640579616 -0.070681913482729244458 0.10789367774655030108 -0.20004186557795397561 -0.35374989778854420974 -0.095965888859728093463 -0.1547463116104170755 0.11658456414270153279 0.30477758473419841456 -0.0099359428058171782999 -0.055098629130801275722 0.23523971658812228847 -0.0053262088369024490619 0.22737740902650388497 0.044108904327527224953 -0.48275299239079211278 0.029564461265312178689 -0.10114785443242235718 -0.19291357995527552704 0.17222664108770935343 0.19287629683334464592 0.15013701455182787425 -0.012284573726635205151 -0.22714025092845441245 0.051074806221604179823 0.17588697577029005492 -0.076864255696815708685 -0.24385520478318509219 0.14986764157536999753 -0.17138975263436570518 -0.022104560535153926909 -0.052760156066118731044 0.16185244852153321538 0.30523776456177720284;0.14607895257467620742 0.13541284878143305948 0.10517931867607779872 -0.24118481336916536284 -0.19926622396617740818 -0.2402815447825077666 0.19429127683182229047 -0.095515258701128397112 0.1760111998994752236 -0.026777386970000250505 -0.1840174891246028066 -0.17369924170241277106 0.11588895844125006451 -0.004640330293931282761 -0.093014556655301214305 -0.021391202536136424972 -0.142745298681567101 0.12512472100110194617 0.10520784117221168574 0.047794608813826924831 0.24382664785413743491 0.098815161673161497347 0.26825278613030861807 0.020157716917667951179 -0.15457313681000178773 0.012268686198328288689 -0.10867321620718146946 0.10634506145749678119 -0.039376223448423688933 0.12057244688118387566 0.029393287405070578355 0.28737405051212960849 0.21464351035135598167 0.14868210069943216256 0.053892022300520280031 -0.14409126802006566592 -0.013989960093629754193 0.14671184650607960176 -0.3257456665393864137 -0.098361128088009300297 -0.016633382677343943462 0.084160775997173184471 0.070145185094556306016 -0.13315695846210756637 0.0040317120744416679035 0.23287026579699562912 0.12917508590194859419 -0.36585151876197857801 0.24748938276778062462 0.17876669666975933404 0.13757475292163218183 -0.12622441112517135409 0.3623905187637878611 -0.017736012111300117344 -0.026141816524334299948 -0.097706140327926765954 -0.15841186739386914351 -0.036297666774214476515 0.15231986927344895455 -0.26864506809463806203 0.14440170795457615838 0.06459625049940589947 0.10350392508358342847 -0.18051914094164245306 0.45557717522602264593 -0.27728624561020531747 0.017163057569485270365 0.17351535727851957747 0.0034077649682547443699 0.028829587649701678143 0.013754267174748887811 0.4285431229231956296 0.23817913551255398552 -0.18554726749776206951 0.12689342602152209327 -0.16077644320909001419 0.30473132515162015821 -0.098213749304055741884 -0.175589654508740034 -0.13311798902528734767 -0.2478983687854671436 -0.27469873477134931772 -0.30514501957748979555;-0.22456139510843134421 -0.06188033872011707015 0.33321475194519523111 0.22266194896572127915 -0.24510873929004214911 0.22994439102819902443 0.19898670544633356716 0.057673263536088245629 0.22647165903175409118 0.043600414819311615611 0.12507898893418503694 -0.0090155844909531289433 0.1546625388917125532 0.30423204648601587241 0.11068502942238439557 0.17365459181169140557 -0.28639336455276914739 -0.41618297603059078993 0.092149423061394175605 0.18261423607232765698 0.20892015339964251086 -0.39484330745476720059 -0.32997497315955798269 0.29376456757065033676 0.16970023135549394677 -0.0095084537015070122457 -0.16780873635254070497 -0.0080302100066067146067 0.40387751759669698881 -0.17842223582996272202 0.12903503549114700433 0.23243270812542835002 0.003095126292428366805 0.14170656756437927104 -0.27101794363812914401 -0.11183195770460334362 -0.047456502453464138869 0.11141583160559244414 0.26437570025234607973 0.3468102068242339131 0.42210072819484256712 0.0096955667028601980745 -0.11643223831150023573 0.14048352886551265795 0.36831032554021553294 -0.020695813496577626645 -0.30162848592291308103 0.31840543000592025358 0.18774386753741464928 0.15340827129445233634 -0.047485236193840089924 -0.32986828535084122827 -0.38229417926475589562 -0.11862587902894308756 0.51659581316481195667 0.091030434166309917576 -0.037151155063049931537 0.19999918593866411465 -0.23172191326950627999 -0.37455048758563241895 0.049738517068938857546 -0.21019553463206522292 0.28988784939381556649 -0.046392729459808094983 -0.10083365521639504891 -0.1456619302101473945 -0.13919285804586864486 -0.20404518001445409725 0.1630593752972754884 0.025628903562045127207 -0.10686452828773923551 0.25755248643751865734 -0.056382620011774048363 0.097711505637064752228 -0.27023073091829907799 0.29942993169170711854 -0.03509258773291329403 -0.27078623289297543142 0.28226214297854984592 -0.036156425944445493015 -0.05765471256072452616 0.044439350299030663805 0.30468511207420451159;-0.056897211254341585607 -0.066538840586138292554 -0.17847511143370436981 -0.13859098506655956329 -0.10776198663582160775 -0.015729433591927775155 0.21197158353095546524 -0.25533413764293821924 0.1824358868198907857 -0.33844510803211846905 0.33387270559544995896 -0.15791522217841469367 -0.15582067926687009907 -0.1865278759501200756 -0.47944674899078909558 0.67952720906934349632 0.014386525090208433439 -0.0066731536900640053139 -0.31066666398229347834 -0.19173679126620229995 0.65980519990220687365 -0.2287096782301156761 -0.17470560927885239733 -0.57385565367459512309 0.21822638241739458764 0.50132243818726451856 -0.083939781435698940237 -2.2092357273595234542e-05 0.02013045111673596177 0.31585825945521922575 0.20784564243026071306 0.013513989480238550872 0.1969630603046331474 0.07219537901039568828 0.1444220423828685429 -0.18644623249865627246 0.12999589605823153038 0.39873037558923463131 0.0051910119298741678323 -0.035822026661306127782 -0.028477187840711057354 -0.32681323967482850401 0.15567630893819814353 -0.037621779152277531888 0.23897575869580128805 -0.23584789953942048024 0.073616520173585706099 0.047885916229428358848 -0.033205151850416149417 0.18335984992617601619 0.20797534025031344518 -0.0054938848139123742237 -0.31988073586146503757 -0.2573871998203868805 -0.114172238088578612 -0.18799479543121744296 0.087149211909922835728 0.43795132299935141118 -0.24158542482142514318 0.16793812742255734283 -0.29668983112265678859 -0.4505960566831997971 -0.068762231189569200662 0.092071734097189883439 0.37681160104883765216 -0.21270074502319452625 -0.20769546466921992578 -0.01772679912150237902 0.057483929474681401406 -0.16279241410076020213 0.12116570812985830163 0.18041215352965303542 -0.29000763115736133413 -0.054882837471755999137 -0.012575550838847029608 -0.13331239285051230126 0.30177737947634203364 0.34670291360235189204 -0.0016818282116469131151 -0.048712617605967366285 -0.34352531409983316779 -0.10061841361475869217 0.091653875512109211909;-0.22091271464095929566 -0.11293666058295158405 0.13874584457665029014 -0.25784337791281430885 0.1361846217887009991 0.10773353861673121146 -0.27506147245479856123 -0.048632066632472249756 0.27963698397784619853 0.0060240783648879709516 0.030909792295002409823 0.072354822410854183201 -0.19615656022461383512 0.080451152573499232212 -0.16785376617274552768 0.12098619063302550047 0.15129038664998653574 0.080668043193798152912 -0.045551369193464759377 0.13522714226719545483 -0.24615527279309656894 -0.28041827235426924902 0.012160587147131095981 0.26152195175389730819 -0.01166703761402448393 -0.10915536828444977191 -0.17221634921678047325 -0.23375674187417139205 0.26757844574522798853 0.068449807723004463256 0.065314056972806719403 -0.10989537915231961662 -0.027641071619493185613 -0.21725868849671131633 -0.026657376472297687059 0.27732669463552761524 0.080056655451843636295 0.034875717389910361466 -0.077979921519958916853 -0.13232165808512366678 -0.30280326432688881022 0.14541409347857806034 -0.18743255082567922276 -0.15484076166120369633 -0.15935294422047710516 0.33478033565104098335 0.29744862182541692563 -0.036457335681274655181 -0.10881035841396657915 -0.054652876226368829471 0.053476420832325594068 0.15279294448186789279 0.014988701563808963166 0.043079363995373237683 -0.080594906355931472675 0.0069488041069049434964 0.1666334721809125119 -0.30745518014463790735 -0.035155703756744476063 0.082584869165618510212 -0.054864584630948717847 -0.15328300609982103975 -0.30077377220324658103 -0.084973716232715643115 -0.19343688229853911453 -0.34005152042638159271 0.20465645737254239966 -0.16012701075805182982 0.30048259694718454371 0.12274840275867465733 -0.014469932238590058754 0.04280136600724331053 -0.1113772333050345037 0.22818300495651969162 -0.23994152700728210714 0.079461095650652555089 0.14637134526528380873 0.089028519995461144476 0.16278870586067628601 -0.074542713854708023136 0.28398332451133512233 0.17130286165051292202 -0.0024350624248298921755;-0.025093649883485873858 0.34846529096229011957 0.2164037728124571236 -0.45556718712012850281 -0.47951543177757621761 -0.063596696623146417582 0.31025863300072314965 0.47576151858918913629 -0.24418805744996097129 -0.048749792008247611053 0.58281899326609332146 0.0084529202788297935073 -0.63532328322985431868 -0.19948011066809359648 0.16126885642168653501 -0.64093069736858465646 0.22127364745883282282 0.039876346728767775307 0.18347692513019817073 0.48765716644591755591 -0.2699599597222826497 -0.055043402133377640484 -0.056640574066002966069 0.049332337608702842013 -0.29306618755557239941 0.19587071294212587969 0.1951668718209430553 -0.20820430754703467269 -0.10287452020913195883 -0.070452228268389274768 0.19628410033724796868 -0.097603664326940078877 0.033268290440144406006 0.024960557324358857018 0.027813953325392971883 0.21791863182465115445 0.96937424160369645154 0.38165773461327229255 -0.78607846166722250558 -0.35372382706232557981 -0.34591439669152934666 -0.06693893182548391052 -0.0057591209080877043755 0.6610581722414341499 0.11326752146091402518 -0.27944579601716373896 0.18373948414403903917 0.078151222664382069549 0.20309173549465103781 -0.35753416122447440051 0.06822275166498510679 -0.026967160160032074834 -0.28798797414027532682 0.22786669026644190694 -0.38470470863429889752 -0.14007737614787468816 0.061900414030557251999 -0.14019427678487333955 -0.14138621180196411786 -0.34970299551596822907 0.24303403476063242805 -0.46934543270039902341 -0.19960646156603326085 0.090208844935187368352 0.15827316580133996005 0.30342237912050268323 -0.30158443337458346045 -0.014792885038889050375 0.087491304953960027935 0.074895444372018005197 0.0077723755048857718492 0.050647916189774509765 0.45869316685898731123 -0.0048926556201730952642 -0.055884272289115008436 0.11533760887398461503 -0.37555658892581383901 0.31975920051123696286 0.18449949106862578718 0.22821424146145918854 -0.0044397100728460828223 0.096944115362181559892 0.003218542028464055349;0.14796622471952322608 -0.21764927205007450484 0.25574978104738538276 -0.13897982245993742434 0.10728920944035065521 0.056026781462226990516 0.15670761170795846629 0.18915629377829049074 -0.082491485917005322182 -0.013598803201311683922 0.35829219162033743018 -0.24301453527253505382 0.27329480859964061512 -0.26009982375767326523 -0.089811840455964936369 -0.093308302233037168638 0.041033903594775981982 -0.077718240535937913038 0.14051708300225815296 -0.10444625640611744644 0.12876857225287491326 -0.16570756613009815505 -0.044298819527178200095 0.063292359146913668155 0.053469822163812123772 0.21644886987217490382 -0.079913785370001752528 0.10867375845927518263 -0.12663831858375840245 0.03616695659343244218 0.0021810921736694962453 0.076972231606553184746 0.24866429913440157851 -0.17292462036088343535 0.10063738214953146799 0.30710717105968787788 0.1771244231478250053 0.16538861179459643513 -0.12104300420191985155 -0.12612640845209346918 -0.0073189750005662164781 -0.060341903962820957197 -0.1318512038188344726 0.25162737076599517305 -0.16072617982270981374 -0.12325682654691451356 0.29200929053891555576 -0.15016263793627468437 0.12121799600957312848 0.29348760972064835695 0.062087129119267656097 0.29384130720366186118 -0.030982174981965183991 -0.082606025663001014792 0.048017922139676184889 0.27575155122292555054 0.080869206821238548422 -0.24919439687469638334 0.013917747218346661342 -0.026619179346063656655 0.081877671722382847075 -0.086182854646493209372 -0.248318782734578275 0.24088144899814134536 0.038817061395445245919 0.0077955866171777162335 0.021932858584371710264 0.18995491272927894633 0.12689124313550217971 -0.23269994622397111028 0.1770599313172563638 -0.12541786903778343043 -0.049591171739475650715 0.13790563648660889018 0.29756923241090549315 -0.046326060783289484124 0.092109515237831368628 -0.09037725403449470285 0.30040304405719725489 -0.054668655139993395375 -0.015146109746050299277 -0.13780369704173703327 0.26072928781690324351;-0.10081925016439613474 0.15748658180511201921 0.31122018286770075646 0.10209741349763837293 0.098470561880706825031 0.16587396095692466536 0.35647992149080309776 -0.31358090545310102204 -0.11216330235362703682 0.29378100624502234695 0.17098974612895734282 0.032533694224026139807 0.12118040090186077418 -0.28789698489574866436 0.00020255139065707532535 0.025751786803625588418 0.25781600102005047814 0.12973520439920449565 0.12188563234088660436 -0.059114047963262569829 -0.44985928570950162175 0.5135153185148740862 -0.1049946929240847121 0.17872261436416528313 0.2249141993123368044 -0.44668447966766255952 -0.060017189919826907651 0.2129246690840209677 -0.19584404228204710385 0.15766699967198594123 -0.30494861854895172204 -0.15382040400757682197 0.13919464827393682183 0.092573709578577426105 -0.14090670790890072461 -0.075766893706479307435 -0.045251800985368149932 -0.098595790215427109304 -0.14477913413829873734 0.29069300450354684795 0.39445584213765905179 0.17000791136069184906 -0.096954951861157073756 -0.10146357848810484692 -0.10795928503677272581 -0.0037172830998825762139 0.37479201868617367799 -0.51622506028584680404 -0.093453945288153886239 -0.033603531204687966949 0.28766503961254574762 0.0016988459700475815831 0.52063688437346811178 0.51507778897846345778 -0.23694863827736276085 -0.070956455373972576739 0.15054623663390684363 -0.072779155766375794312 0.6493731603521322171 0.084717302159848989485 0.11300209713830168534 -0.15106683914656215961 -0.091413196911328167826 -0.0085412340959406807261 -0.3091577317832799876 0.73948759025473242978 0.34870625801685856127 0.047580166871085405322 -0.37609749289970917374 0.00030064109515170437011 0.20936629221627189867 -0.57157087388783045512 0.21488970673856677696 -0.22846679069999217826 0.28106925459811704648 -0.088427531400346773283 -0.065998510533083504237 0.19551522902499182677 -0.53206574880250612214 -0.099256272574647766427 -0.2305376540566606014 0.18122321867526164363 -0.15964039120532039218;-0.33146610715970059591 -0.26950256922399185022 0.13581370876377704682 -0.25552376000368359765 0.39844206277579802267 -0.40424721365232951786 0.13110675349619363428 0.23577925163585539137 0.093081939193271900912 0.10544998004110466006 -0.41605696830489030669 -0.022483348719236444929 -0.18498608307576513976 0.2891559674835043614 -0.06960414462311077799 0.66359373398888743534 -0.22912409386946450129 -0.11353206587042631581 0.044111124498198345245 -0.43467674354149299365 -0.36561843760260215319 -0.21468298281408274009 -0.34277596524436532155 -0.35509594624344364977 0.19585974091555000132 -0.35511058130835648772 0.7360011018920492587 0.099200595888292303348 -0.030290776890200543647 0.50637569391341519243 -0.0064953824003703680007 0.71877789681548631684 -0.029055661891967638627 -0.26785136992896746433 0.14805213117893734065 -0.49149800975384733137 0.22923103803418568014 0.43242669285732243667 0.17535561858883247366 -0.33974064093891537253 0.0018420694296316371223 -0.30217162528512264696 -0.27350909548724289255 -0.36047068771671642029 0.22882838794648993619 0.29318721029279554147 -0.054271579484309183383 0.066489610320875136562 -0.27428170270478130499 0.061418514948775815299 -0.033992130268480802435 -0.14226871558420617347 -0.36743211183222351801 -0.35663408234346710701 0.11575413637202199013 -0.4705689161530821063 -0.38904993135410476102 -0.68915421695539125224 -0.0018884264973273992214 -0.25600040622813130531 -0.72163926721543414367 0.31122756529969108907 0.22981143988907518083 -0.47232244330143602351 0.22095437328510392216 0.81019689341456879728 0.52144225841020874768 -0.42314439708082940417 -0.088364888599951910142 0.098369438568520650712 0.48622894791810278292 -0.39275247192219980841 0.63236364529385513666 0.22263701173728103755 0.17332313285085293453 -0.22326292612953194117 0.70910504148771713595 0.064171795931678626834 0.088366329495975518005 0.013193875127707779121 -0.033402562822952980293 0.23299016043309922486 -0.049698815811477461968;0.026692599129940933894 0.21233157150376075206 -0.16087348249189722948 0.29947606930418330107 0.24591447957187043127 0.10229665452547680171 0.08313627786780054818 0.27559510904182388247 -0.2276704962518336095 0.17411444613131280001 -0.032295307251043035845 -0.12964870557929586425 -0.21061349787807434608 0.27524321489123410034 -0.017794885872097852136 -0.049115643847740329819 -0.062524184008280372926 0.10082758331151193965 -0.32754546208921048178 0.38733415067046300662 0.21492639862635298797 0.056401787014452357816 0.35026872985089035906 -0.25388793390458219701 0.15853542718593943706 0.12772392797728629454 -0.077063136295019318833 -0.10083308888845128604 -0.085929729372272958821 0.2121004764956143096 -0.37023795207954657283 -0.20808483562171381509 -0.084721972092838493396 0.098548764742436484321 -0.06280452206805035853 -0.28368588541600686659 -0.15745157421092390027 -0.086183480501428572085 0.060572563096057678578 0.095242159530903688913 0.025729329220179869564 0.26500205452184194543 0.13821459743705907797 0.12026244601411173463 -0.017163401667646814575 -0.27835214150631276686 0.15490676172159334456 -0.32284968972119970632 0.29763573777829421818 -0.15688427658884609994 0.063569490069613807104 -0.032748509492108113239 0.055447751728222700873 -0.12794007554987096853 -0.11989965116215642316 0.027292298835651540578 0.39347106248568991527 0.79234804318917029242 0.25985006837188850959 0.45541597190139837537 0.42009379934199303497 -0.21866360395209591405 -0.18034941550313693392 -0.19743810429359975878 -0.038536877390637325203 -0.6253205486978485883 0.050481299797070181001 -0.17584898366211521026 -0.36148241320207608052 -0.11525631629266161471 -0.10507800526731903012 -0.088305274521890006478 0.3378946938816058676 0.045208153960778089953 -0.19204256925808460554 0.023467280716397986157 -0.001495195472384534428 -0.21603782818872444005 -0.36902048482033583676 -0.12566153033889176927 -0.084266350143047272225 -0.30112787778162081187 0.14028646991643745068;-0.1113520389218262685 -0.081377196762698791876 -0.18783058460664439626 0.034054084429981847093 -0.016719357483410111215 0.014540984738981790544 0.25072677854918273832 0.21907134286629798003 -0.15773556934081239822 0.055029114379820352754 -0.13559878382256784768 0.12164636733490410969 -0.34268757692657253466 -0.24020675702504135085 0.11777257329788871909 -0.046413782891103927408 0.072937184408224386978 -0.15352921815857581422 0.31181964776933868144 0.37097430353312366158 0.14194524872963915074 -0.31579661877774067857 0.16562376584232024745 -0.16972644089426675018 0.10474362372843294688 0.31691529332237700078 -0.076088234835687815205 0.15669822667375307712 0.25483988910775706715 -0.14470146773518860472 0.050679430348587822808 0.2123075547792906137 0.15354624235808059241 0.0072631028820233948726 0.0066645493717163240346 0.090047854072541802517 -0.37793775565974474517 -0.10029984606041260353 -0.46704986479431204183 -0.26282177840730480689 -0.034172570957857341389 -0.071315999944629060447 0.15753944033470901331 0.017244794870604377574 0.24590953565720238827 -0.16009088497109968952 -0.13562976562019468663 -0.16358898732674795329 0.34672839410887806855 0.04537767394798870868 -0.36734050237991583421 -0.38073111957896205171 -0.11287557979434921507 0.071783377415981119984 0.13270221982936070138 0.37594387279611340968 0.44248599989837522628 0.41949439481812950126 -0.32682234802996434908 -0.16470104069174854033 0.28369022447598835068 -0.44731346825744666695 -0.20336493060773849773 0.24838451269910552521 -0.31887963393133567092 -0.42746636932792481112 -0.0037456573357580597028 0.15663136451970433027 -0.19228078741475471136 0.14941967432566524709 -0.48379343617538378419 -0.093428324638964652116 0.075789309002052995812 0.45088245158866263607 -0.21481116968883040563 0.26023661591651070513 0.31406676271768291242 0.084376541314637787394 -0.15661086924479314386 0.20936684460259988305 -0.0079137140374872724791 0.4039308153203455265 0.22744594673356380299;-0.081741901545255346573 0.24808789889183074928 -0.099178244298193565798 0.049433697010219324053 -0.15789408070574034726 -0.052622925115009107355 0.14692750408017310471 -0.073664603419606053403 0.17777633491896077667 0.0385543182483727917 0.015561055410644371658 0.049566329682406928825 -0.060198411982845798085 -0.099244979914507092111 0.25313846897921105095 0.14729497588445022993 -0.11412109724104835262 0.18050774312050740789 0.10286982192261863445 0.15060696942223930628 0.1318338089780817235 -0.23584269284705577929 0.015092239760417488006 0.081156279290451410757 0.074210765525986377433 -0.031980512900507865326 -0.0080311291007991343627 -0.1870242284148865286 0.10665688658723111726 -0.18147897428234965878 -0.17196565469185637332 0.31282156125202159602 -0.26744479419990385693 0.15872515399317646545 0.40726288974474705862 0.13444472624547729178 0.090179761161680790926 0.10405429338495478242 -0.20749866781119030712 -0.1690113640129706496 0.13726271914482876535 0.20216123814556688498 0.21001512873025335315 0.24909871767994845593 -0.2267537014984642163 -0.083188758060799158911 0.17313000361282873674 0.38658825211164238311 -0.063584232231017528969 -0.20565861671084881279 0.072646455462774317535 0.045624512368693359576 -0.1473640426190866437 -0.087546693447253340348 0.0061293236274042178779 0.17893057944348833566 0.18443940658191235182 -0.015147548216869508725 0.20637715923599642132 0.22792678416672071395 0.20834520265205885847 0.14278565751760172176 -0.16356121197188333571 0.022962590628221618561 -0.083663113258604315803 -0.072006239468895019695 0.18716388209959611277 0.096590159611898207537 -0.072658582083578046595 -0.33895843643735246165 0.016966582074186383616 0.27310948138513546635 0.27774636403956759478 0.051583844851861682113 -0.061601470852310068194 0.14871822513236826468 0.16780850301090996513 -0.37254273675880839045 0.081358219819628305181 -0.051815876079937962795 -0.16493643545226280289 0.0012245966248665403429 -0.19655578838504433881;-0.019749061819888866914 -0.27084668108918774632 -0.095674280273924897089 -0.010975186090207336015 0.36308238517060736905 0.32345366513426715427 0.10440925763747621602 -0.23769181669890254716 -0.031158315039095548643 -0.206565989442563408 0.0080004280291519520862 -0.1978653881422892391 -0.36952705386909295848 0.035719573379627243825 -0.42070874277903336225 -0.040810623964181974577 0.055125633701786774798 0.265368534061255823 0.2697124067547994053 0.014046417241314336846 0.32545363299944873869 0.49364788099798179166 0.78267843397534087035 0.3698824925896029292 -0.10553646812804000354 0.28218508645920287181 -0.34229245055589690994 0.26134526234907018427 -0.38686100310602911101 0.35604627756366846736 0.33428521820660683783 -0.091817789322420254039 0.013405472714624125374 -0.054737480354316192521 0.20158684926743006272 -0.091167923302939782304 -0.28636838232828548678 -0.41803058884638250037 -0.6099767552242915114 0.13282722824535533879 -0.21767284169855344311 -0.023699324952995776822 -0.0042903592062025781156 0.34766074242751920931 0.19009108715526870648 -0.22616562709391926922 -0.4121788061517000501 -0.057995914720996771807 -0.18918390884866564949 -0.070607075025912444111 0.0032074114135964147849 0.38890601006851210908 0.60012317151180427643 0.044801595010011074915 -0.30003550741073298225 -0.12070305082487825521 0.16996225810295498282 0.72131367580651917226 0.49111082588489690659 0.099742567366173762178 0.56915853035907060242 -0.3244175294114292063 0.12207050215860380804 0.66289860232549069341 -0.7536564845558940684 -0.5271785171413215787 -0.46022255896969832545 0.064832426158857134335 -0.0071162594116670578603 0.20847096634458064934 0.32270348403147014471 0.036232676052383443188 -0.041873205816948866342 0.086356216248489686693 -0.071470922959714452971 -0.22552971072071359426 0.11342920800451365693 0.61786588673318143528 -0.35400710703939602952 0.089404351029801445994 -0.4201310417193780955 -0.44260493922547977652 -0.29328208057708260448;-0.15040719044027628382 0.0048123826737168145726 0.0072897055119070588991 0.2813437816564288152 0.19951655036069335103 -0.016217771831199583737 -0.001351927676345110723 0.09715634535588178744 -0.34264005549950332652 0.04353941480161568206 -0.1664753417539505953 0.37213918906848686419 -0.26407353406189332246 0.16773202904465212004 -0.16153397370525324206 0.10128524476679917621 -0.22391988763799283713 -0.055615738167243682077 0.0097752843542275522082 0.051380693238270672141 0.46235240072924049803 -0.017731893086605120952 0.058407497723053619643 0.14618799521105663164 0.25642966821021451196 -0.38565585975462690627 -0.25598942208483338456 -0.17466301899208794279 -0.14015932971436217969 0.51546581485710041282 -0.079065300964926574223 0.12740574899735218617 -0.43843520360774440592 0.25497564872190342511 -0.10115772234947635611 -0.26945505855535878403 -0.13243590637297547596 -0.12044558064919243245 -0.10200336095329624875 0.049064351893436039531 0.090821550265578421257 -0.035462454817438572585 -0.34817582026020627017 0.049327775024892626943 -0.075262676510555737153 -0.21563676981858467818 -0.33879027891566693143 0.18574090229592379875 -0.079631365449877519747 -0.15643610270088414982 0.063799766766032647847 -0.17199422207539880048 0.25066915802952610681 -0.035187747891832432678 -0.10976682318857465537 -0.12292390375690663562 0.12602389981038888966 0.55816556606162992527 0.074252410699301968355 0.32387119070580255853 0.075388125876806405534 -0.44590097549240914621 0.30907165083193732791 -0.094411645741896685347 -0.87273088248605912298 0.023104564540329573796 0.094419743885422194318 0.16238083070928097107 -0.092486957056732418958 0.3961101442126063743 -0.10968367790672305107 -0.15982224173056958083 0.082209047564674869735 0.15678003343628713062 0.013516491512045668288 -0.077379953436616022433 0.26547779024337281317 0.23956547909203662616 -0.10471425742057365038 -0.23305329956658382695 -0.15636614875053150842 -0.18100764700622004599 0.40026923296262167939;0.36041722021789490693 0.17166992194306338049 0.17837791775684314066 -0.16337855096870362859 -0.37780702676822991437 0.25017068762292238304 0.42254871604262156382 0.16962516786695613913 -0.17876316321660287723 0.018901888001940248679 -0.33747490005951585879 0.28002740191954272886 0.32727910212987343375 -0.35104099429139229427 0.19002858185291177096 -0.48407952681374077919 0.058366109833705846766 -0.15850863457373712273 0.14893429439212321763 0.091841032057233137897 -0.32567570006664425808 -0.026541982850727573878 -0.17314232676192917171 0.064117244049755037216 -0.19857920015309277195 0.43610594075270903147 -0.31157767641289246807 0.088982459055949342241 0.29293996468253158394 0.039796786879538456616 0.3060055261928818493 -0.27950418133771581797 0.064628301242268176852 -0.21913648933788121287 0.11282489434974816989 -0.29381002510101894565 -0.31497212053982237556 -0.17200681966961378633 0.15921458541427979672 -0.48013559953744378017 0.13304490079415359771 0.11824500206198403085 0.060750106586485143334 0.19828193249909778495 -0.084206621806784509587 0.28513208776343307305 0.34833640834287327159 0.48202641106274674021 -0.16539621053184380695 -0.17328383998519830689 0.30042008732839420304 -0.69037726378914043845 -0.052513033205281930971 -0.18481890074499093823 -0.039463335839583869868 0.20910915149002909375 0.085883860143766782569 0.33443283070295443116 -0.080901655100924008135 0.21828441465623843465 -0.058771897700594266656 0.17712232727274518362 0.15720525850524230682 0.36171318219285675255 -0.099983235539755757615 0.44512804682761514252 0.19824952976793011605 -0.19010807966586548701 -0.30951273438183807274 -0.087240716923641742353 -0.11934139868198523349 0.20505437721765459869 0.39874584632165804843 0.018308402271350242285 0.19040492725273552854 0.054995867789594352071 -0.20082079035334704509 -0.13517074721027941275 0.19127351488643529187 0.24577401091415487788 -0.23855279265763734697 0.2075512625897344976 -0.030095120594108827616;0.077995461814110822463 0.1686352952829259233 -0.018983511555825997863 -0.13876328223441997123 -0.51920577927678923658 -0.13499222928491175222 0.0085761793269033652354 0.087767288257967188136 0.2603100151259620243 0.25422752685926830463 -0.10345900423318098171 0.22429729380380988846 0.16966745241946878942 0.21212531195849043675 0.051471069636489535926 -0.69496281222050726445 -0.38025091826973184128 -0.32854178640990550075 0.33894493962954169719 0.13330404622583813534 0.20902141274382318725 -0.33999253767460990705 0.002897289750737298223 0.32588564946088094398 -0.47746740421583905301 0.0080908533330222576208 0.082385329699923529057 -0.37726865410761173392 0.00031585213883340715682 -0.33728650465693027494 0.30701637614991456049 0.38161141348317068056 0.096816760814730312701 0.35661915566648605402 0.29225194354358757787 -0.22582976830002801649 -0.26985744071366157826 0.39270368344694983609 -0.021340349326895949322 0.17287269702072782795 0.14385828902755645742 0.66232870241662933353 0.11117399255149935933 -0.060107737782968004292 -0.23697030222342038708 -0.12181127199026398067 0.38687534163361048112 0.17157198728116351827 0.22250328377568900917 -0.47634997333986073276 -0.78689623498239169574 -1.0647327519883060809 -0.27501872713591102304 0.18599176320875415724 -0.3568239455898808421 -0.15638563201125699198 0.48191247949176391208 0.083071208672344729051 -0.80303884840390471478 -0.44166208706712478671 0.0019850382474053368358 0.51593382028051015809 0.091270326645129878917 -0.62225917582387535454 -0.030562190551597350624 -0.26222593069944349908 0.28852918309862907176 -0.11797884795752086595 0.10790152638167792298 0.48583041299323359574 -1.1059346770183586806 0.67028627567736076553 0.289005518431648456 0.069702876927167339849 -0.074420603840824536834 0.43038253222049699387 0.34060415788458903164 -0.46045685050262613602 0.51144880401528380887 0.067245168201007135544 -0.21159260795131237809 -0.0014082369399087493484 0.38723278568458557869;0.29635474766303032679 0.12305809433069143932 0.3146745096032263489 -0.56819940125476420256 -0.36606046820624094096 0.1059196592403889442 0.13909765265435736215 -0.15002922988354600031 0.34958891055970187089 0.13949108398583873192 0.26428984274073302752 0.014194645024313199549 0.31645320665881149225 0.46890140612728065106 0.019100060020714872827 -0.82258406682297724455 0.11044818411591292295 0.32228251220763287632 0.21786225671543094085 -0.35454468122495824689 -0.31653507807921804629 0.28899532321340432039 -0.1229329010735148997 0.28710490102026825499 -0.40965033639651798891 -0.34044924635454748563 0.2987388735251851335 -0.067785378943316348943 -0.047901765577005490926 0.42957095090134533866 0.60648473424887250349 0.0081438787926280276769 -0.22324396353902231649 0.10267058425733968652 0.1332261005698235079 0.12669489418637136513 -0.14727638358936231966 -0.2464877935862889724 -0.42626646501836923386 0.28855942424168568028 0.42036944428115857741 0.40585154757035718509 0.16113726413616646926 -0.42212577661254269135 0.069700172351657915804 -0.021905852206077779804 0.41684732462397489083 0.085037969251340411736 0.17115636896871722072 -0.76033144666716934168 -0.70057352993769506089 -0.32468508844432408811 -0.036239399187191816132 0.17639276363324632446 -0.23791200633228437589 -0.39903135796039751471 -0.062335085896212900913 -0.59217812088807186832 0.36358976140455123716 -0.43690268413224819799 0.015924598822083090716 0.26894412144154211664 -0.12167128893195412742 -0.38848107423464306454 -0.8264819586086206149 0.57254241464513122573 0.019989095045754950303 0.37418888916078607565 -0.33701668158484981985 0.078703882149735920892 0.064954038072442557561 0.10395812389901754047 0.12704386021476568591 -0.28707450146779356359 0.50485355273870757831 0.42124122041086287105 -0.025462888327012239698 0.64992932166341177425 0.18541416687594680646 -0.15406028756323725259 -0.27567276325521405944 0.43571579869413590291 0.36022341518033784702;0.13046745060649100889 -0.19773768438809388726 -0.10314736278418140669 0.016743325051390086505 0.14949140566628968396 0.22273190655226066115 0.26332509961695615974 -0.0041249901649870251638 -0.14570312537081769877 -0.091899600056661492897 0.020606492995335748408 0.039552518473246395248 0.21478080221668871541 0.084696166302210579291 0.13019321293885197099 0.012377356485635829242 -0.014204576576070784832 0.032131079997354483613 -0.076510157245085863575 -0.13170788182977302694 -0.12642351694300241194 0.19393662284582149913 -0.20444666940813682743 -0.060361974247772322288 -0.2082912085711949024 0.14840988257767839809 0.097020193941327131926 0.07721911258813135559 0.1858672443082725334 0.17891723835736172976 -0.21593383303548535634 -0.19351870195017831233 0.13565391500746204478 -0.12926274380166302702 0.021418308428478867456 0.18427253165648083133 -0.060117129348299574998 -0.094503015366002612874 -0.01809488302172924945 -0.07370758510064176483 0.023253898639427946632 -0.29926868398258488213 0.078790418867717551543 -0.067492827571337857262 -0.24815824169459616 -0.21541185517386132742 -0.03777220658685040422 -0.077995263543969212128 -0.1060686760268995249 -0.26861168032895882396 0.20153433171134033097 -0.23767238809677379563 0.19855121679553502934 0.16899574569856604112 -0.14617320264034977528 -0.26445373989201942377 -0.18561725744493237644 -0.14329760628894355756 -0.19546433578036509493 -0.12003202149083343209 -0.183600047569588809 0.14908516549863609635 0.011258759008104407898 0.27082224207947297456 -0.15752587238152404581 0.2357084721743043787 0.1869348937485055262 -0.059572265046192271476 -0.21137115255183253071 -0.17405708861137403343 -0.17609474471148597874 -0.27006250760149230761 0.019511036220514442474 -0.27365857112386909877 -0.075348994465742863413 -0.088165262433640229078 0.032041167661119793197 0.096943490715332092389 -0.059655969878398537598 0.13311112922701870409 0.1487622711120475949 0.12622217568553226186 0.02180997162209905027;-0.2648760570648582835 0.33445892560283968509 0.00017724923792777379293 -0.11478791995261662662 0.14846565176842813072 -0.34139036876650652452 -0.12663262470032315976 -0.15120774819480722884 0.15026835285323489333 0.1379849237190211575 -0.039876822533446452945 0.016704230923886662086 0.19985309418402261161 0.22930522386436966165 -0.15410476033753173208 0.35141725305561316572 -0.16603504295631960064 -0.067107532203490832812 0.09879955109536558977 -0.39204339502469776058 0.054888139744576326662 -0.34144558071788289055 -0.16570003382709949658 0.10277967460711001646 -0.077282126330215708543 -0.19105526946665843391 0.26038487586003877805 -0.014191728073416461087 -0.114183493897677249 0.21295070853223338481 -0.10976876029788035227 0.059024589647646112656 0.35744703828191953798 0.14070535942998635415 0.12805885556047783003 -0.2128243830583265439 0.35558976009364434701 0.13619540640669286491 0.10918712175749450966 0.10576662906151379495 0.34448616428792450117 0.26111649479519483119 0.1406349796421306475 -0.11216136564783381335 -0.16646829302176149867 0.06243555103792381572 -0.34459795909383050816 -0.044692660893473984407 0.27413742960961035022 -0.052345219591536762405 -0.22689594111323549419 0.022379730207861128072 -0.34623047591424965796 -0.41435799437085818475 0.27571548230038955829 -0.13665354491462980424 0.023916301683783513371 -0.81359816872264323351 -0.07326935398466395688 -0.095740847727040820359 -0.53036075049279485238 0.043724022759946135075 0.13273374236775173363 -0.2164331686410125577 0.00057034977639704935014 0.20047457529253001618 0.44665207925218358698 -0.082870585685394515529 0.311237250412545019 -0.052419198150760307198 0.071693623341495218981 -0.35607788336221835035 -0.22985791596077920218 0.072257564359818976518 -0.016880783669657159485 -0.067309232079855355058 -0.30922697612236943465 -0.18306790186872895498 -0.19371498224173192004 0.027552360677428250346 0.069289926471726215329 0.33252741447919487161 0.03450467995774718355;0.17631270626544617852 0.25534076064231442382 0.12179313185809524656 0.15620973550907638061 -0.11548042587695545036 -0.010557158937141739724 -0.27418655919743423199 -0.080503100087280163311 0.19494017191213064422 -0.18605198446305176718 0.18914281767583715488 0.31734747497254844895 0.17511826501467303574 -0.30789453948346823253 -0.38538560941888760913 0.45971117395449501153 -0.34233107409107638164 -0.28938974032162917416 0.042752209964813707443 -0.31958139020709103173 0.36549962353931431114 0.066875812646616836221 0.016115382974373947123 -0.091149675000775198797 0.40910109576320674574 0.11331794016008138459 0.065046394612516766909 -0.02976134861309776003 0.36113765814016546285 -0.19055997120499973407 0.2156670607776969284 -0.061925612169385045591 0.17049505307741391613 -0.1770873475320128565 -0.22290935267212261262 -0.36348435503066856 0.32667138820073404748 0.65236512612764840924 0.70220381478086491001 0.10563665514353751118 0.26997658635886861989 0.12293765714715819415 0.13655601377787712769 -0.30709023904812676742 -0.24316274766544873631 0.033300589638723059049 -0.03731946433657034462 -0.41151963004838904014 -0.2884470190630965547 0.080498786324737683917 0.20443036862596572489 -0.055776952803383787749 -0.083368247497405442714 -0.073610275767305777261 -0.1015995661807467948 -0.20445501578672153897 0.2444732277851063007 -0.046400348371986872842 -0.1441974683033194482 0.16547772773840985217 0.0049675446968767507025 -0.10553825647000499022 0.10874446802017113944 0.13114804314592015677 0.53854709007274970123 0.18949136581044143113 0.14689681087303876894 -0.29128999615625722486 0.053851157981635332239 -0.089070577953470522758 -0.018459664442515962002 -0.060114307339471116653 -0.37088819873104689195 0.21741496397555343245 -0.31663180281873010147 0.22580654846581255102 0.059485055620864944748 -0.3681463632078725845 0.066553942319111422665 0.22805101891790680035 -0.07242311493530215194 0.2096894253726432622 -0.08431594963535817;0.21212658454641639127 -0.074605069301072440835 0.16422307801408947414 0.00085107168741348107437 -0.050009190826101800054 -0.16950513428998656429 0.40695544408397937852 0.10347597466964675306 -0.18705914643271234765 -0.090867359761946306373 -0.26762170403754054204 0.0081447946569789264615 0.41483267845492904913 -0.34148561259789733668 0.36711939374510110801 0.068351716180939159351 0.19872422601696232425 -0.42554688928153172611 0.38280448991135712644 0.076898318880327803937 -0.077477091216859417244 0.052881650581559178081 -0.065152511129334400586 0.28888842523740981827 -0.18629258079222016375 0.30109898906411636244 -0.21438334681931336956 0.17068085313170902606 0.24249978166069072194 -0.069302625004459689206 0.40862412205770598517 -0.380430333986949476 0.014922299894647678836 0.20480414177402850306 -0.073458618602266087527 0.030169071333041159316 -0.087240603582141210137 -0.14762678568128653755 -0.056613992235158831778 -0.1029826754801814459 0.23911490703553775483 0.2102176911419401939 -0.089304995888704330476 -0.37425356555847871798 -0.12890153903913847966 0.13630285555510507356 0.3047209941015001089 -0.17416001302688791097 -0.0054823530676029871497 -0.18185259875998491252 0.37390731238504337774 -0.14390429236037194372 -0.021755512860590145441 0.063978269481009680808 0.007834220198027048998 0.22308760415093153995 -0.0089782652635770291566 0.11694044055430717621 0.24627449086696009961 0.0050872625660049221319 -0.32786794580184797088 -0.30035729479992229196 -0.10457454035956127714 0.23975785369454133411 0.26726655216592426489 -0.10056696288233525627 0.68416333480205826501 -0.30682169558445482327 0.11553588437369484432 -0.073415620559500446851 -0.11383220378950029139 -0.23510857234111723346 -0.19797656670689622871 0.42854140567798904016 -0.28023210580073976139 0.062408294402238453924 0.3144523219599222319 -0.21613685440823010575 -0.4258485413489516147 0.48417005400043522378 0.075164018280522285065 0.27037187667716511275 0.21016135698632606998];

% Layer 2
b2 = [-0.095263599213790572939;-0.58560125298076282085;0.059219069399376191021;0.28199571682248314453];
LW2_1 = [1.079689028046404653 1.1931719231404216419 0.81089579069939843325 -0.26513908400441910107 -0.90261480969239360483 -0.50274576765322687155 0.59530569857595039274 0.68752353974435775896 0.40293859908587970065 0.74602317250382954583 -0.38484043183423827239 -0.96888035384777815295 -1.3209612349584862745 1.4607292318353006788 0.88689046601331922304 0.71003134590839533935 1.6771383696332089475 0.76335873386895247705 -0.89347090604338841313 -1.3192218405327205133 -1.2078817612647840818 -0.62455949458913029293 -0.081418226280904545944 -1.3831551330225939633 -0.60545140094782778917;1.101736018491860758 -0.30109988480866073379 0.80234506521196358175 1.1524571418836757619 -0.26411918971089792807 -0.34022023484323687947 -0.52082471768378824084 -0.63306299449363168108 0.55047273299317056594 0.32503312582625903948 1.1055278961222616552 -0.66675915452125478211 1.1239920211103449077 -0.20261168807104781853 -0.57048466401732045306 -0.36539892515101779491 -0.81915831492264534752 -0.084792951547346520624 0.48218846959219896497 0.9345210362443473473 1.3665623973058744767 -0.892153883641524037 0.5329510648295622266 -1.1378815450863626335 -1.1589895848592068894;1.0979907333716840689 -0.80559176433901724668 -0.44127529109736590707 -0.85210778728998248788 -0.47519720021761979734 0.33512085053732382223 -0.72707125128164995509 0.75703669933505723932 0.83546335816218619819 -1.4641150171986765383 0.61628487859049008168 -0.26951252645462175916 1.9260949244435578986 -0.30270733446071912409 -0.90348692083862414126 -0.61020249196272269288 -1.4141724800880246526 -1.5435274441704309734 -1.75658301909138026 -2.0448964431685170418 -1.5445907861905265879 -0.62390316000796874896 1.6931975031259975939 1.3092288294032410345 0.26048993162426525849;-2.505473022113857251 -1.9712708056308354543 -2.3208475681875508911 0.0033091847753257881172 0.49458369041108413144 -1.1483473538079065346 1.6000308851076989747 -0.7714313664675735982 0.2577690789539016647 1.4681455028136121133 -0.28688060581287067041 2.1595408763922345763 -1.528594417505936498 0.49254464023716471033 1.0133825688191819836 -0.78496131081103048821 -1.1394570261168830427 1.8086605538789868319 1.4094200374102778817 0.87681600898285738666 1.1962155030996126648 -0.18551826304271917811 -0.0085187464587325109622 0.021212463080622575434 2.3607263299210781149];

% ===== SIMULATION ========

% Format Input Arguments
isCellX = iscell(X);
if ~isCellX
    X = {X};
end

% Dimensions
TS = size(X,2); % timesteps
if ~isempty(X)
    Q = size(X{1},1); % samples/series
else
    Q = 0;
end

% Allocate Outputs
Y = cell(1,TS);

% Time loop
for ts=1:TS
    
    % Input 1
    X{1,ts} = X{1,ts}';
    Xp1 = mapminmax_apply(X{1,ts},x1_step1);
    
    % Layer 1
    a1 = tansig_apply(repmat(b1,1,Q) + IW1_1*Xp1);
    
    % Layer 2
    a2 = softmax_apply(repmat(b2,1,Q) + LW2_1*a1);
    
    % Output 1
    Y{1,ts} = a2;
    Y{1,ts} = Y{1,ts}';
end

% Final Delay States
Xf = cell(1,0);
Af = cell(2,0);

% Format Output Arguments
if ~isCellX
    Y = cell2mat(Y);
end
end

% ===== MODULE FUNCTIONS ========

% Map Minimum and Maximum Input Processing Function
function y = mapminmax_apply(x,settings)
y = bsxfun(@minus,x,settings.xoffset);
y = bsxfun(@times,y,settings.gain);
y = bsxfun(@plus,y,settings.ymin);
end

% Competitive Soft Transfer Function
function a = softmax_apply(n,~)
if isa(n,'gpuArray')
    a = iSoftmaxApplyGPU(n);
else
    a = iSoftmaxApplyCPU(n);
end
end
function a = iSoftmaxApplyCPU(n)
nmax = max(n,[],1);
n = bsxfun(@minus,n,nmax);
numerator = exp(n);
denominator = sum(numerator,1);
denominator(denominator == 0) = 1;
a = bsxfun(@rdivide,numerator,denominator);
end
function a = iSoftmaxApplyGPU(n)
nmax = max(n,[],1);
numerator = arrayfun(@iSoftmaxApplyGPUHelper1,n,nmax);
denominator = sum(numerator,1);
a = arrayfun(@iSoftmaxApplyGPUHelper2,numerator,denominator);
end
function numerator = iSoftmaxApplyGPUHelper1(n,nmax)
numerator = exp(n - nmax);
end
function a = iSoftmaxApplyGPUHelper2(numerator,denominator)
if (denominator == 0)
    a = numerator;
else
    a = numerator ./ denominator;
end
end

% Sigmoid Symmetric Transfer Function
function a = tansig_apply(n,~)
a = 2 ./ (1 + exp(-2*n)) - 1;
end
