function [Y,Xf,Af] = myNeuralNetworkFunction(X,~,~)
%MYNEURALNETWORKFUNCTION neural network simulation function.
%
% Generated by Neural Network Toolbox function genFunction, 22-Feb-2018 19:55:43.
%
% [Y] = myNeuralNetworkFunction(X,~,~) takes these arguments:
%
%   X = 1xTS cell, 1 inputs over TS timesteps
%   Each X{1,ts} = Qx83 matrix, input #1 at timestep ts.
%
% and returns:
%   Y = 1xTS cell of 1 outputs over TS timesteps.
%   Each Y{1,ts} = Qx5 matrix, output #1 at timestep ts.b
%
% where Q is number of samples (or series) and TS is the number of timesteps.

%#ok<*RPMT0>

% ===== NEURAL NETWORK CONSTANTS =====

% Input 1
x1_step1.xoffset = [0;0;0;0;0;0;0;0;0;0;0;0;0;0;0;0;0;0;0;0;0;0;0;0;0;0;0;0;0;0;0;0;0;0;0;0;0;0;0;0;0;0;0;0;0;0;0;0;0;0;0;0;0;0;0;0;0;0;0;0;0;0;0;0;0;0;0;0;0;0;0;0;0;0;0;0;0;0;0;0;0;0;0];
x1_step1.gain = [4.81927710843373e-05;4.75059382422803e-05;4.76190476190476e-05;4.79616306954436e-05;4.75059382422803e-05;4.98753117206983e-05;4.87804878048781e-05;4.78468899521531e-05;4.92610837438424e-05;0.000132450331125828;0.000132450331125828;0.000132450331125828;0.000132450331125828;0.000132450331125828;0.000132450331125828;0.000132450331125828;0.000132450331125828;0.000132450331125828;0.000132450331125828;0.000132450331125828;0.000132450331125828;0.000132450331125828;0.000132450331125828;0.000132450331125828;0.000132450331125828;0.000132450331125828;0.000132450331125828;0.000133333333333333;0.000132450331125828;0.000132450331125828;0.000132450331125828;0.000132450331125828;0.000134228187919463;0.000132450331125828;0.000264200792602378;0.000264200792602378;0.000264200792602378;0.000264200792602378;0.000264200792602378;0.000264200792602378;0.000264200792602378;0.000264200792602378;0.000264200792602378;0.000264200792602378;0.000264200792602378;0.000264200792602378;0.000264200792602378;0.000264200792602378;0.000264200792602378;0.000264200792602378;0.000264200792602378;0.000264200792602378;0.000264200792602378;0.000264200792602378;0.000264200792602378;0.000264200792602378;0.000264200792602378;0.000264200792602378;0.000264200792602378;0.000264200792602378;0.000264200792602378;0.000264200792602378;0.000264200792602378;0.000264200792602378;0.000264200792602378;0.000264200792602378;0.000264200792602378;0.000264200792602378;0.000264200792602378;0.000264200792602378;0.000264200792602378;0.000264200792602378;0.000264200792602378;0.000264200792602378;0.000264200792602378;0.000264200792602378;0.000264200792602378;0.000264200792602378;0.000264200792602378;0.000264200792602378;0.000264200792602378;0.000264200792602378;0.000264200792602378];
x1_step1.ymin = -1;

% Layer 1
b1 = [1.5145866929862006334;2.0607820847977191825;1.4189557816594378092;-1.3825189377633622101;-1.2422104172954167023;0.92516583041045141744;0.65446419181950088451;-1.6981275024297188825;-1.1294806626462501331;0.048609284265581677309;-0.54134293781166520354;0.29607158751478168668;0.583047927231658214;-0.43392346401201797867;0.088984471417556013084;-1.4042088399126750886;0.205394150768006295;1.0112828833739326839;-1.1212277752348129845;0.68696388809100572548;0.64568027737725985915;0.78966049387335834897;-1.7209031826133027732;-1.4652371458177333441;1.769262415183566306];
IW1_1 = [-0.11774343386673927214 0.050294646162688139146 -0.062109792507154454322 0.025575439321635001777 0.32778122178477092641 -0.27729173414191732316 0.021516632184380983517 -0.1897133601066958164 -0.2342558500156633472 0.093892794313346947255 0.097675896642163986816 -0.15468198778547018191 -0.24499104251866260507 -0.054117656720605283871 0.14273569625588369836 0.11147988160966580684 0.061572826809623316946 0.15639127994829021828 -0.097811868456506065317 0.26282212632336271474 0.36797324404215564497 -0.2133832490275331395 0.02734761387762690496 0.036895088655052192539 0.036870951986082159402 -0.023757263179969557304 0.10390768402706046514 0.049983782293953560316 -0.28742854841119208631 -0.22077251909448925016 -0.20462655665847695463 0.32793172676683751687 0.04966048953412365019 -0.33639385070232624697 -0.31580377086334043835 -0.15781181164540972195 -0.11484502587385445049 -0.12515406902789349974 -0.27286346498851049569 0.0092836285775693121874 0.10611335227710591567 0.21468706391663217037 0.25765024692318905242 0.14668761833629589963 -0.031132521008939918056 0.12325892878095812133 -0.00065370072995914359215 -0.090282112664040514716 0.068973653065142373486 0.19987786916740690746 0.07466754362853116056 -0.21762801110097843016 -0.013825528649144904619 -0.097424147175536268684 0.22680311673214073598 -0.12667474207020648636 -0.15511811251101217946 -0.23547094976707771963 0.14119950736841369032 0.23444045160431409291 -0.32775202492250005148 0.21602200261844406448 0.16532733033056301597 -0.15431743272352937968 0.075179994583538009567 -0.084214017927223758231 -0.090446456771077585191 0.11823750588534916173 -0.0076917287393417745414 0.036633003875634416457 -0.074926125879841196098 -0.14512532687143456234 -0.19270033827131297088 -0.24018530174622193529 0.16532083378942732943 -0.13011858205882917416 -0.068005783289990032192 0.23133018138972127886 0.13243011274143604017 0.017047753289838651902 -0.36058074181505278544 -0.31008126188069046192 0.054563866830169144295;-0.2598159921361405944 0.68660166836681213454 0.052623571378907267604 -0.49555966647134769287 -0.44545377070130831587 0.341324289384488333 0.21424734029496916854 0.23019843813401624777 -0.12257694739556215802 -0.10074731223056210272 0.59608574977099149095 0.50763374853213050208 -0.19810813215349559746 -0.61719392720304366851 -0.19684798230694064425 -0.59092387637253085408 0.48190008260390265749 0.22377744333056209802 -0.17959372664259795616 0.22145293841126667544 -0.50425642747696897139 -0.29414441736091362367 -0.12354304253254369539 -0.15406357315669522157 -0.07936536727175946826 0.58076902981312017449 0.13484884856688342247 -0.026836439617191561874 0.11783908437110314493 0.27524061631907698056 -0.21467394015906249294 -0.22238582712534257779 0.21437097539112276445 0.35718534177952648845 -0.34969196712660155502 0.090981589938385773464 1.3574865035319336748 0.090721776867066367123 -0.97424648543894731834 0.09141204493839368006 -0.13350119779778429896 -0.16976204849465578728 -0.24046987974275796374 0.67982211107938406158 0.44688941907046531021 -0.69172992599623295273 0.54546292818742247999 -0.36909494788610924809 0.075028536126634001735 -0.76010122025365167708 0.12446974923061895901 0.031486272199651284265 -0.26377913595531660151 0.52197304184790072057 -0.52782137505116433207 -0.082423470799991196967 0.23234850634895060084 0.19536342438082551776 -0.14623507781976427533 -0.33182151606918913744 0.29259309643175801519 -0.43887624967807209453 0.1875979449840820823 0.31978457053337744354 0.15474873197162461458 -0.019568771430773266445 -0.032267533642737010469 0.039344664173972955512 -0.083115595493098992641 0.6475193158463141696 -0.42246697184382092649 -0.011407118015657630519 0.19173407166156847259 0.20883615227922455726 -0.2249194501740986174 0.14662991017829851703 -0.040169022905258894296 0.22135067892863399819 -0.26009371260606523046 0.20689351331894445529 0.26580850901259528429 0.38765121195976154356 0.061440591078061539132;-0.26200825602103411383 0.006564889679663865954 -0.33664480234601767972 -0.21073883779996691046 0.13776937082433110549 0.011300308529417555162 0.42665338318562356923 -0.067168664863302460222 0.2270677221861774342 0.057457591768470636651 0.06560104336292872651 -0.31894304427116665357 0.10508638957962604388 0.038428949677783236227 -0.26887975913622313984 -0.22074913242417970594 0.49221470214339552163 0.31879366945681675283 0.074790453922802577202 -0.24068667149457242949 0.17863889956268896864 0.23887989016951743926 0.098300956577375864232 0.023880886219457157782 0.047054312286014247924 0.13227441300213088615 0.015339190300893104646 -0.16579504972284325737 -0.15601752905353416523 0.16724197465480744595 0.20059941308108952818 0.03398370583848619314 0.33926659456651320212 0.0661485676178644455 0.038087083234895430239 0.10768596528020718539 -0.081019662136569581268 -0.024853074179753895101 -0.22757340487326527256 -0.35850534639112791035 -0.096249144940524555825 -0.2854748875147899434 -0.058817691672855561269 -0.092292498219923801983 -0.15286508370117940503 0.19690699832779873235 0.073249251933351619548 0.038854800911179376843 -0.29830793906784991432 0.115802984720708671 0.24822512710893160359 0.49358303684196147554 0.10089281678097335171 0.28157544893313862788 -0.022750540593080417762 -0.0083429649887070585212 0.060008618019306660119 -0.28301387475561762264 0.13202039547211952275 0.17516693551206546919 -0.097493275902210865813 -0.044204901643474250883 0.12278400822597210218 0.29702236594691605598 -0.36013639889794718529 0.44362671694598032612 -0.13803619821761095587 0.27238991680040708365 -0.053503872924532361322 -0.020547113720246326651 0.52016259172654533138 -0.030246405545127124509 0.55023571241623403516 -0.12517976157367396994 0.25292843609974424712 0.0080936786427695667223 0.2009802094539835382 0.21525836754097321668 -0.12373785751234261943 0.24815404868741242073 -0.16318426827724921702 0.27197965815918861976 0.010198282714144578029;0.11383259596802686175 -0.18376874180906177525 -0.18352367146173900747 -0.2087515093089944429 0.11636828517208931688 0.053398558936123642626 -0.031393236254848605471 0.066626960708175392289 -0.1140788396808151417 0.13753531056738624305 0.17090282462180514389 -0.31581425458594741817 0.12524030540898398178 0.059461095076448228225 -0.043886687173481431223 0.19675163838267384353 0.034035407691590788271 0.081974963361055100397 0.11667527618338405238 -0.19545433573645390468 0.035999771669805676055 0.18507399612244751497 -0.081117015882907955726 -0.0019056971109720202348 0.11690214998123744927 -0.28646099779756445391 -0.021724371730049131524 0.10369154845377283325 -0.22408881666903621155 -0.15558650134960499978 0.22203255020916295992 0.044157603538239463548 0.30522231336907257315 -0.069017005711914297672 0.084323586366415112514 0.16070297913186307182 0.024375768689175052878 -0.073433376683449791411 -0.32714690425154585585 0.25479530745147538351 -0.21269994963864188864 -0.26932489022535682777 0.097911595839500098482 0.077562664226338673412 -0.057426757831113575681 0.0029051536549651686345 0.34046141169157767559 -0.35073099674582769447 0.041453509251846133721 -0.26357939731892476853 -0.30780957300396433185 -0.22260837028112995251 0.19097217306259323122 0.1978968312699412313 -0.26889711594732185196 0.023914692378324876182 0.11659259568144667019 -0.35578668873452207189 0.23132196455292960979 -0.29155939256934793047 -0.088990854057430165969 0.10728689156333635901 0.070218670538968866457 0.069394991549008286369 0.39238595989001778808 -0.026998832901672577267 -0.31540768462839630093 -0.033265822368199769732 0.047420054270224068493 -0.039843042759831255595 -0.097003931627974729346 -0.056927546152873015339 -0.014155666722138658675 -0.25584099419326783442 0.26164250232157382214 0.076396349467029417424 -0.28559565953455140486 0.23819908367966013962 -0.076571531467461095843 0.1481584125372199523 0.038741973224208595128 0.011416429814754297523 0.072578477576439787144;0.21861193712768617337 -0.018342407052483290092 0.32536678797124218843 -0.06730411439090701331 -0.26824935257685739165 0.21283534616822247232 0.1285307617832220084 0.005083197034057737769 0.012518267139485310044 0.28543650265272468847 0.19908136508679577514 -0.35256678434137350697 0.28099532084576900326 -0.31170719459844464794 0.013786906109247312399 -0.11020224384384907923 0.16659921926448398311 -0.11397585828652975759 -0.033915965275468029638 -0.13046234866795800023 0.10064276901336594028 0.23546463462919886567 0.21738458572828858739 0.099435363525806702567 -0.0045606220149033574809 0.46464141734759217828 -0.12283904060926334467 -0.15323699412794428154 0.13386430739752189223 0.014994974422687145157 -0.27826835744944750095 -0.31768593461255040244 0.14451900720853183557 -0.10858928644494993121 -0.076327267805566728631 0.17112338698147275262 -0.36020792835209836102 -0.10356790284428238347 0.064602367586673287159 0.2148861969742976441 -0.31501139250430110206 -0.023152383684428849003 0.096380682688890301213 -0.23646364778814429886 0.21829407180493248797 -0.3912993210038184233 0.13232163029755139583 -0.27575025357352977995 -0.29837514449999058552 -0.17623332364419566631 -0.057481953071713734471 0.080682922409599414082 -5.2322366866748329611e-05 0.1831649493011325569 -0.12302866945342787186 0.13429082438961073565 0.075968718231569934418 0.04058874423887393057 -0.13087463129317422617 0.0040524234988818363251 0.34335443236915164089 0.1901662530767842807 -0.16646133053057890483 0.077006749849602540436 0.0041598325084349708006 -0.18165974938276141515 0.2281048296307434109 0.11522529023880820342 -0.27738846833596819685 0.037569873899872090195 0.10484906300010049529 -0.10839078624658594896 -0.020516004395041587127 0.24496241063182494502 0.034917610857673468672 0.1910757082278099761 -0.11883160077553366063 0.0089638556766144968091 -0.012557202183202224172 0.10991332376229516476 0.36512456419019279075 0.33246392017012160736 -0.062023902487633314484;-0.12955517684303941017 -0.096036341558776189276 0.25747836887251840388 -0.070615983063851736623 -0.22207780147907260626 0.10156782568824181123 -0.10998290475907752939 0.12113465967766484654 0.053219419213848623285 0.28768293715296461288 -0.18166323290674721291 0.47265213610815093315 0.15297962910918741497 0.19986704516523076669 -0.033183270227804421981 -0.03193630735549415206 -0.1455794031871705807 0.29134256753956272457 0.041214620736095171349 -0.37121934387050298243 -0.45359883540110729205 -0.036560002183922447883 -0.40374969378071462467 0.61958685161849169631 -0.22704075793834638253 -0.54851925110547206099 0.73825338648196103808 -0.27559807140181463714 -0.06811633718937196158 0.2566046211125999621 0.1395975042969377633 -0.14809815491664829468 0.049628188534170052104 -0.25129887562948671764 -0.19349267119326080122 0.17461319099394698173 0.48914003814034084927 0.63386246521020539468 0.1321071497036324649 -0.0025842028802718001838 0.3163187950894434386 0.044374112399895380976 0.11266830553125052605 -0.27513067564508997265 -0.19454372298024322219 0.4368607387816351717 0.44115113437832814691 0.0046129012147966544019 -0.33439617674759819499 -0.32950898513686222024 -0.26792380302959106775 -0.33647460276601171003 -0.32580140992151751522 0.034750515751344815407 0.30374221659490685532 -0.26888109478742622249 -0.41157161719832485725 -1.0709530011986616582 -0.065823234626128490632 -0.30076489807505185636 -0.26352083522498698231 0.98946402290061474805 -0.13355584709699230839 -0.15606309464155829203 -0.14934932385429058876 0.91914133909928608102 0.34760784300646940803 -0.089553241985083187338 -0.034340331900018623845 -0.28161084804835739837 -0.018247834387236479964 -0.23991350352157811421 0.20820420603044778596 0.037750149370545701966 0.56963763804232647736 -0.43129031662934763647 -0.33003684134425570473 0.18010587673111899676 0.8538221273614318152 -0.012673916465995941835 0.37594675670834598602 -0.012104007672421859473 -0.15475927647656678721;0.061474697826628663111 -0.18141538223424699683 -0.15402394383841525038 0.12592978139713284502 -0.18757876236642820333 0.032175202639158462237 -0.28384362162587944978 0.37474236357748619275 0.24942076795882950346 0.268560307347961158 0.26869330680570324699 0.0055228870238122557482 -0.082908423971746997294 -0.23643699213814767246 0.055099551432548292407 -0.2122252833257203819 0.16907392130320994528 0.28729353733831841655 -0.1461257009836260945 0.21684224287814257703 -0.4266328517846616486 -0.27895360503909871763 -0.12753256889748074143 0.26756637405429894994 -0.29492381540244921867 0.4941263155686285713 -0.1028038717846462835 0.039747154182437988146 0.035222907430971346632 -0.26866972783626608123 0.31565601968934758892 0.16745811202619750868 0.08575561226965890127 0.058195350304224686966 0.17128393841873748582 0.34911838179364124146 0.28078667569689008676 -0.4811807681325492303 -0.10677366573934170269 0.13367586492063512904 -0.17464277499209249211 -0.037246110154583754459 -0.28679260944486933971 -0.29403299296484175507 0.12638294943557520922 0.10965979027785832667 0.55923123923481998787 -0.019481414844794840702 0.13339171714109410161 -0.057692401564108666823 -0.021916640376197872586 -0.2231966508559071749 -0.52315659650866286334 0.16129774142370895129 0.37283896075482919619 0.14619823064818418534 0.19517948422805095343 -0.080574684840243396278 0.18336277122812419393 0.077644057184528672555 -0.039262634960314554688 -0.077749086429848082713 -0.18413703063579120456 -0.050339576705162460135 0.31572076069990251401 -0.02431013153613720626 0.094066872567453038712 -0.12168195542657619934 0.37345680227666655515 -0.30606287983883567749 0.39363827797704825651 0.013974997066874855767 -0.079495472792173560439 0.058620536028182998467 0.28400482976392271706 0.24021922233907327948 -0.22807554621300710207 -0.14156534625387795501 0.10989897415875836406 0.37710418414147017785 0.11605562837816772725 0.18665392154263515945 -0.071012849796864951912;0.25027975429847892919 -0.28566514422417454977 -0.019920633193050256426 0.51087272765298530341 0.20524392271233948826 -0.01965546825617279364 -0.28603600554933511502 0.3713524205039219761 -0.11276249835467765104 0.13664401995481204044 0.055179374375171660883 -0.021863986391927756059 -0.066522082062652559964 0.20499046628345943266 -0.054529562050588051281 -0.19197808210564953901 -0.2492673105323850169 -0.034150037802922639241 -0.20530768751480690804 0.098803153782083305567 0.08671041728770870205 -0.2076933088913830161 0.34907120008031405911 -0.0097671420990426468384 0.149421689886255038 -0.092239865948749319435 0.41449930930907225024 -0.30407599106525379229 0.22184737326509548772 -0.11412699364084004372 -0.22541592220109168965 -0.092885508053380402838 -0.1024999153288469883 -0.233410363051991393 0.11745177683882601638 0.051840184630075579475 0.50334158175633969545 0.037398627746947687989 0.12996590058145074398 0.099067395214578274354 -0.32912054473762669682 -0.16770221244773445002 -0.72394984469736012311 -0.0066438009608582593302 0.07064056386752368133 -0.27589791027415522251 -0.38061597343084252465 0.22975231880757437941 0.17214829613330950853 -0.64628775687896422575 -0.043186041611215503222 0.49963117547340019087 -0.010432388585431173061 -0.32707231463762204138 -0.0083650254343796415224 0.017394558624802543972 0.23749316394216735127 -0.25944797589315343744 0.19049263042184355621 0.12118202978163158945 0.48829532183410917501 -0.045521476120992436509 -0.0036222134820129308665 0.079415578508467393748 -0.52836584272917297422 -0.11352582665175978138 -0.28601272080623263427 0.18377786901435999578 -0.21944491352013267838 0.043414056510201824712 0.62438767317184828975 -0.01226172611724315846 -0.29658727464602357982 -0.096022220675700820092 0.21907574875464552733 -0.39680638066109585882 -0.23570673803845076932 -0.019072047530976549146 0.43644982990223668562 -0.58089463581002342973 -0.18790288414290348684 -0.26882237275787262964 -0.33490541591408551358;-0.091700452480691641011 -0.18598366000880287019 -0.35205049941219718201 -0.021705904943358018261 0.66008582131688442463 -0.34958892776885036602 -0.12582726398603938378 0.011532016727631618988 -0.042733246781511552426 -0.22715549489384739834 0.37844457796465824639 -0.11970044912289257155 -0.22451789410847811101 -0.053942269946676495163 -0.209307417141232327 0.8835455787191787147 -0.33065945972558669075 0.10584538801965649724 -0.26121059336421126318 0.044761855865516182729 -0.27029603451835254591 0.80259255567755971583 0.53652844724711423741 -0.86968402236986075415 0.15002537440763039078 -0.26740743174277054051 0.028961428818941568203 0.022219197123082654738 -0.32395416858977887919 0.29606280515564870059 -0.14307998523486123443 0.010078764823534635056 -0.10388525994854434786 -0.29003978416723402711 -0.20940590901657732403 0.034655128422870808136 0.25963601156701809902 -0.17856176935524775695 0.33999944556527866846 0.033480267369828370372 0.078418408257253213733 -0.79523561689141752939 -0.12684544150697749099 -0.10318149936421538992 0.084307176052159440993 -0.10530808032494966275 -0.81688162354335069892 -0.013661363787994996663 -0.18129500675555762501 0.67411614805128394767 0.32389197977207978552 0.86095341392006030645 0.51594542228462281219 -0.18828906554779142879 0.0056220120728709853039 -0.031565815115462060592 -0.53962753041252653485 -0.40204661997716811817 1.0220073292409799226 0.78661784540340751182 -0.43183526344917499973 -0.27394948558116199999 -0.010703104473765061647 0.46596594338296959403 -0.16425755302853878304 0.42093735553652150694 -1.0229902457049382392 0.4137168713333673753 0.028822705074958043792 -0.45863333108403947502 0.92410941921182343517 -0.52339671991537917162 0.21616228749426880107 0.0040042573231973662209 0.3108288486507646553 -0.519670046398473362 0.088611427869653744405 0.52795802213657094804 -0.36686136494597737512 -0.22482153291059087108 0.24182640475117558876 -0.5391069701377337875 -0.62749671438259990719;-0.19898431957912338097 0.42461087500392263872 0.19627583059149439348 -0.17539958465964541889 0.389943495776954141 -0.09284313786199040186 -0.19628665394623120988 -0.30895521344707255196 -0.1547497635848019415 -0.32128920498901192282 -0.12280089594623100346 0.35177569443408962524 0.28435370215097494073 -0.18319506620996239832 -0.12886518409428684984 0.27621800427426052016 0.092268738146442610959 0.083439334787841989982 -0.41569950451666359825 0.33368948728176101026 0.25480923161484653194 0.64569562173474892575 0.24507869378712501818 0.091650953114625191565 0.31435868924288151716 0.027987169777001653231 0.13033374324891591756 0.03004145341489915591 -0.24244315701521901296 -0.059832631636809588405 -0.4268018559805713541 -0.0069574554931048412237 0.033951296587597261378 -0.53029509106610139835 -0.31040048698613553757 -0.22989399472505891997 -0.054022143300280406342 -0.11668884801026987996 0.023271860081083194094 0.3499247648977349967 -0.044998501371668275794 -0.00024709037631653527328 0.4430713949062333179 0.24916493759322172474 -0.067193613381388739292 0.093801784845822064329 0.19955845017167980759 -0.047421256994169623533 -0.30295493104568227416 0.1038108954771196496 0.19052091943808435737 0.066400532370152740014 0.047714011329746217061 0.23326291586583813853 -0.26915034432300161127 -0.069336282773071480912 0.010323650942963639651 0.18763424657642380211 0.3421242632685157492 0.25461975085142962705 -0.13132442833900179191 0.08138516531224027073 0.0891683796645901805 0.099887995320525849174 -0.063866853259419514854 0.18596969650594261103 0.23489543944256288666 -0.069104967083288587615 -0.044250853759872844917 -0.060304443314617484084 0.2004836024124257432 -0.65136754866760648852 0.2355308015154296275 0.16107977780574711524 -0.12318306932020949007 0.18140730642437191689 -0.041329078006197637885 -0.25918025737864108793 -0.4727436650273632579 0.32508950076386822214 -0.36256300134852981198 -0.53706030167436991096 0.040653890329970396311;0.29932167982046159471 -0.018058952698129945857 0.28746992028612367021 -0.042474260766003253675 0.030501562706051487533 -0.11398954588917295516 -0.36097762860960930231 0.24207488970896309799 0.17361019423902659953 0.25412856751627593832 -0.034929457244469962196 0.17375714163524516587 -0.031633804095460543726 -0.37713433771547694162 -0.054731934675105613219 -0.49864922976740116978 0.35122467163505316501 0.28801623302999940224 -0.21846314385964796245 0.1414595162909746684 -0.15902693201956374924 -0.16090115934142318332 -0.29338107653344430714 0.1143786800431117745 -0.12977418514504834857 0.33738876172096676775 -0.16521186779003579903 0.13531141161923457283 -0.20867494912832057485 -0.17988403490972451615 -0.24118895682456450991 0.11790611283671109666 0.092453615656204204964 0.041861676130333654033 -0.07148666854500113077 0.29958076871649319539 0.1670720035300094497 0.29658356153075082773 0.16383668550557259347 -0.18803819387685455355 -0.21377072432618948739 -0.19171309290416693738 -0.34597256086168881595 -0.38617547193782675308 0.33148905845678772186 0.13515596707034530088 0.5035547275188416716 0.03157461669578370822 0.15694583236188799913 -0.089301320311230558691 -0.056674565926972488017 0.20597338547185584101 -0.15638075067139417529 0.4004893256846302485 0.033851591189567972751 -0.18334543931857413823 0.15855885547735379393 -0.2221927722793961002 -0.20732943745903470445 -0.32345208084586962727 0.21800265883286398805 -0.083031528744485313953 -0.223657528247108911 0.04085061495268808851 0.43635774354634981886 -0.075086137747676584553 0.026198019367295152099 -0.0878514046174515284 0.20406436904555053102 0.010491041223685654629 0.073970141012352289001 -0.1065411191345282671 -0.11410341420282262004 0.071872172941949710734 0.1649108648623105744 -0.12210279608858944089 -0.040389440536291315587 0.01109537943830467624 -0.090011026976569472047 0.079968879753779212316 0.16393274922528913717 -0.062809556091158805224 0.058788182438990747858;-0.20567831281918266817 -0.021512017851458415524 -0.1796430242524410803 0.031462087554667041156 0.0467261880672381405 -0.23303692381214838325 0.036003594582047680761 0.022691006862095849245 0.12068181495513474744 -0.10539012013077744823 -0.12465982147799870017 0.04355610069008050006 -0.33405566623334409515 0.4423368116258610816 -0.085111926037434282311 0.44096475334679618996 0.27057377724768094662 -0.66082407995529957034 -0.20482470943750114012 0.10190374734331013318 0.063750058349958407811 -0.0084313480641061439719 0.16769932870704967742 0.087781629785735990068 0.43284471726347051312 -0.50639409290262005214 0.04738342271100093317 -0.12782341440658084863 -0.13964901621110023533 -0.17373031950152273417 -0.014343390202926872487 -0.048652457541955157483 -0.12862343048480248675 -0.29455394400136958311 -0.28459991342276058646 0.22204171824566265592 0.14386232065423487647 -0.22349254436362558929 0.19974246076731844157 -0.097507816187904411409 -0.023139709995485386457 0.30400804542725140545 0.089712526186484536916 0.22609219656405882271 0.14132438329786461972 -0.43355492825239555499 -0.6753999259531990873 0.15886326439837303304 -0.21081523948995184448 -0.081785793518045241113 -0.038498472132374277066 0.41477448992492083057 -0.33698789960595093573 -0.39465769825998769926 0.085500149106437342561 0.17007224095444212209 0.40827427828329804216 0.037707462243102916888 0.19399644542160407457 0.16503115680336155613 -0.11881979991772836924 -0.065493230235692520558 0.4812733751696390283 -0.013586121167082458594 -1.059567091012004747 0.27459596191670848642 0.36267923003838481444 -0.037478929386664430745 -0.30052103605537250353 -0.23588485152507035481 0.27284235530193118313 -0.52349745373721090491 0.087802728098172203031 0.12284507860368650001 0.073980737049650593939 0.044016754209130495856 -0.32466261486670344727 0.35968241144933527087 0.0100927748947093332 -0.0046172407213708778484 -0.16120731755261583085 -0.15242298660790593035 0.22680808084505510447;0.0019722960480222893886 0.58433677394803662519 0.028434706048772375592 0.11140025171387601954 0.32147961183254691875 0.00098177151716551027544 -0.093262813022901569493 -0.3449236989605778958 0.20066593342094596331 -0.073490884172076012537 0.15690432018277775117 0.65274773574537425791 0.40656433072563674669 -0.78862453671226140361 0.31527318496584494367 0.027361346466306158548 0.0036657679469222831034 -0.2794762764539984734 -0.36917504218412722228 0.12419926822709746739 -0.13780234185363787747 -0.097449195144918870914 -0.73765371977205096421 -0.28335796844878385903 -0.16732693202482340489 0.78309847332835591516 -0.1709438646508776305 0.27718395935456224821 0.057906841800053593383 -0.14946357019000214295 -0.1714248725015664887 -0.42189510122331724817 0.16885256179420823908 0.20820513537312390628 -0.055625005546423335334 -0.43788383665934466071 0.70021594548074361786 0.73317707954996402808 0.61346123705408317495 0.0084058870218026472687 0.058931867711420428402 0.33680113550989948523 0.0094886932000650802549 -0.33536569217198003434 -0.30235342242235052623 0.36244264345432125607 0.59419410214599044373 -0.4063519866667782976 -0.16448353792787021033 0.033556859388591521454 0.45324195577179160477 -0.048626734687892830822 -0.10008789599642074764 0.11562870374477711433 -0.19644184549067494894 0.16287935532987707354 0.22973483849611051055 -0.36954817940285250577 -0.26814746830659880183 -0.16705728768637831405 -0.089070720225517763247 -0.27726651419204606519 0.22369232453379817027 0.085053453267055503795 0.82150139900866303577 0.37808641811255577769 0.84322941166612486175 -0.10791192487458305116 -0.18591007369516368564 -0.1231158044429307985 -0.21377002961853669438 -0.68732903077161289218 -0.8158014262925786797 -0.13204425130246602582 -0.48462427247938710817 0.44508613349377179613 -0.071625439422883047103 -0.80434927330710437321 -0.10341779269668970043 0.044511208573323586546 0.10537330555562746115 -0.39724053981788515211 0.28320727140704266001;0.16455230275778937044 -0.10148264532334037857 0.15995794267017998669 0.4175485406132998234 0.45314091629020358809 -0.32405486387171145157 -0.21522351620534482808 -0.61262114824280156089 -0.26747344097532976814 -0.21875585819425752421 0.17347682697577218591 -0.32306454977196957801 0.18730054625818862157 0.15465411192301151133 -0.15685803537390005657 1.1620723004672857126 -0.035654171315393015651 -0.33853148758922035899 -0.076613480395347544061 0.014372386403639343319 -0.10251790963263432421 -0.36455852119538206813 -0.33328399725903962159 -0.33164420122721677275 0.5375462052078413544 -0.62318982425376379108 -0.11130556176746350672 -0.15859975806339146609 -0.28059655535806149462 0.17878267812706571949 -0.12338966265946833822 -0.20129378228727765054 -0.070546646753106873051 -0.38444116299842767681 0.059196859054750770868 0.54858975172040425061 0.55528114865641109432 0.03264205459072445914 0.1223862067106388507 0.60254835955521446333 -0.39146307990313361502 -0.085190013205190498469 0.31718979090060211989 0.22345165556068555257 0.18814756137293800475 -0.064615909200608362406 0.041088391317560715721 0.060477593525377328076 -0.38165410472092681227 0.36778626366897332334 0.66527477963102676917 0.74183559690300582279 -0.318782096503541168 0.16410084937647409498 0.10725547424733258839 -0.021364117406788989822 -0.082815080976074179064 -0.8659911001751726678 -0.15017599115948182531 0.39446668082016089762 -0.31001980383341271041 0.23228338937363635086 0.27904761508400827141 -0.094343039440302783882 -0.12617833827037833183 0.13175273466897149954 0.30991871184067998346 -0.11983140170677378245 0.40656813553786136373 0.083682411287411204159 0.28088308290202390616 -0.62782682680194978886 -0.62598776575494796681 0.14259739437338886381 -0.85603030377677225005 -0.014994732997127649746 0.24562334142038474982 -0.14421702480160428217 -0.33693067944437504746 -0.36385289852105745512 0.57151623191536171653 0.061771596985409696345 0.015169194205516791513;-0.035660662407423583675 -0.18394523985084193507 -0.30388809314971693132 0.010971209790165322925 0.13127948567095273913 -0.2323231422550669778 -0.31213849078276117988 -0.10286547440442342372 0.08531177191496881751 0.076968068116838525561 -0.21699477810892867091 -0.42106833573226198908 -0.27607076626199739122 0.11255533245186775948 0.2163129572536790779 -0.10369621109660860647 -0.11815837592564554237 -0.11682262402018703251 -0.085714196573856940575 0.049222833927779353902 -0.25735618903571777505 0.28789129763838688936 0.21445786910069955522 -0.35538589027875089332 -0.1713680298568551752 -0.19839920984754264022 -0.086864145169624304432 0.26179985101628217015 -0.41980850945983666511 -0.01189884395882691466 -0.25775068082489616117 0.18241908577953880322 -0.062555384933251731439 -0.15129830880452166397 -0.11449224561124163313 0.051653552081135534202 -0.380038226714352112 0.11668434586963563615 -0.43216724882739282476 0.11012374003622246721 0.23819493914917966304 0.3351191233953473847 0.12332335845463023027 -0.028077461874504414802 -0.21672590107595379738 -0.13387250927248242616 0.23692634137599682953 -0.076033737748756963226 -0.19994801697215258685 -0.14998457706863019268 0.15096242441142934676 -0.19389548345373450178 -0.062499832012484830834 0.37150893272214968732 -0.24660251499925689433 0.20027749687045742766 -0.11176592415738692554 0.046668484351316319447 0.28560270583263641653 0.015884354843508460831 -0.28537248845304302725 0.093365803654979331871 0.087334263257896810329 -0.11313514265452903618 -0.13267850382605128612 0.11544397693186356224 0.11838798102868176854 -0.036659962706071816396 -0.24581987011940242827 0.10987666319545071059 -0.17690978117154404492 0.230777478501216049 0.047181158799727375419 0.20992713772042348452 0.098192515860436119235 0.013864851811235586604 0.025298089275840623946 -0.24734102180231359869 -0.17691725156562068677 0.056768224512588456865 -0.1550432316232032981 0.089487121695862412163 -0.11768703886041138873;-0.21336934890175560109 0.14370863857074805958 -0.52685156962376378242 0.13102796394383692258 -0.26968562874987977995 0.040843244090318579775 0.10551250346197316166 -0.13633104690979985785 -0.027054105948857157943 -0.41084470604912498581 -0.075463003529859809526 -0.3252535916516465786 -0.22903958632312290677 -0.15560047604770835261 -0.13413403855941694043 0.41375136435325954309 -0.16805930083856499002 0.12996294634446620142 -0.51241019390122655164 0.18027304354041745471 -0.10546408228712440824 -0.50257814028598568612 0.29283780854114022096 -0.16326966677829274355 0.096128280626022175048 0.098578609223235399983 -0.33260797825083165957 0.30218218421361231485 -0.30769048977788454602 -0.049918614031802185926 -0.1678929181805135229 0.46630444054538727761 -0.032963807578696234513 -0.0016465270555448474274 -0.07000110091436713422 0.08044785287033245913 -0.15228418636757520832 0.12488795466434203518 -0.33227295378557125671 -0.41948432146774217166 -0.53786854537280248678 0.18949972165248898937 0.065257771526942592866 0.027947478674497750611 0.088290543214546476913 0.26757588743274490772 0.011301323315316488469 -0.02688556248297172338 0.26659217050405464855 0.48267430080571560591 -0.13342189116540470462 0.69668758588220280892 0.30241959984128946592 0.00038417163876969240548 0.047494213722671187183 0.33012261554857902368 -0.39598593691974309783 -0.026179206864665575255 0.51680723250127436064 0.18104338217639667774 -0.068046760161144539958 0.39605305541930518887 0.031624897870575922887 -0.18799846387450352969 -0.0076538537716924429782 -0.8818056160737225424 0.26141948808883347377 -0.22785100396384583288 0.28198230415163738627 -0.20975609863877942018 -0.33692428210402319833 0.15856354076309073231 0.34635205130179069766 -0.049053690439846683868 -0.37829519229931168889 0.072364249742435021728 -0.54571923167577951475 -0.67503798070347309501 -0.24358395524002127153 0.092347391173085491278 0.073647195597644293796 -0.034358859219192926238 0.3384807024730199787;0.32670723703993520548 0.34812347901896656399 -0.21629762643296471247 0.091546565587266315323 -0.089694743590974054803 0.29584702316534461364 -0.15914020290174329952 0.28349100561767798245 -0.061975281007520297005 0.34798897489113567172 0.018342194833926680347 0.30079643444876097425 0.29874111467467145964 -0.07407911270896677669 0.32225438384955473747 -0.12943160742251999529 0.06075380966620935741 0.017174492711584752463 0.27671418050861756877 0.23893456369431986808 -0.26139859633111861559 0.17266822722095934162 0.087291980677264305322 0.31237789891049361213 0.12238442031640403562 0.032756560442360159457 0.017715170259103209943 0.071663987016653885043 0.0961473221868164446 -0.22003481178807129948 -0.022482544848990072828 0.33791343148609143121 0.056280324146429909493 -0.10236736653204257796 -0.12312135010774465094 0.18872852833095143943 0.23159657560463672854 0.081215010700792539255 0.14960941905497904258 0.15352903980621543378 0.32292570552331384404 0.22646711836738075974 0.12666410007347372879 0.12310348732334215616 0.02036027577582104689 0.078713400466081814844 0.021814587962908575658 -0.045788911125481383813 0.020697653492992292706 -0.16686879896208114959 0.3006626138119494196 -0.14844179126453335704 0.32162310382608955139 0.0036451601878224344083 0.25229493737142488774 0.23457383893935226937 -0.05370145812595617657 0.22062145519983517028 0.30251811958452412554 -0.18248806042706908204 0.1161205890139160174 0.051509208319703507495 0.052444207967764402967 0.16463428423291107117 0.020188074148714572204 -0.067171858881459878265 0.2223641454106680404 -0.17535256226817297343 0.23445117262741677067 0.050797438646123974082 -0.042076118592501605964 0.1053426815319569998 0.23256758931470358776 -0.18823372792474626913 -0.21769551007558038402 0.031557724591108539391 0.17106379714921834956 0.10609706817135011736 -0.063292427245179916362 0.19305168554056406638 -0.10953401031253796882 -0.18498282975536328721 0.16858652108472024778;0.4236427893453881266 0.14801688095785403565 0.2760554128288232878 -0.047417315338741529429 -0.0058742874979354278708 0.14260645074611336125 -0.25802434942009877528 0.23734647876327574778 0.014466986571264068423 0.19479045058397986834 0.31931945624986429744 -0.1498350348993006953 0.31071390490361178172 -0.42682913260350568985 0.25786057795193745301 -0.77648687769131519154 0.10717106491824367198 0.3378800975075137436 -0.081675096013737139011 0.26002181565143756004 -0.48891299551875277984 0.47336569793737737211 0.13231954974818799231 -0.022198035039264228663 -0.28566085173171268385 -0.67301542594127061747 0.014720068078133119113 -0.24289144278015567524 0.25878408156131171847 0.045040628131763869868 -0.14030045392633694323 -0.49296913480289278331 0.14046602229701182774 -0.25632399249834231236 0.01892806153475615899 0.32327115620682572716 -0.016630680052558331067 -0.36907944967544009662 -0.20774498493793702725 0.33182444691759704902 -0.10216272656152575182 0.082794602687286250609 -0.14770855241222108356 -0.34883383859641287073 -0.2839864619011405189 0.10944645804851696469 0.16587543004379087797 -0.095486492590116503476 0.063618446788195920361 -0.17019081576415032164 -0.03226004785050612389 0.011174712431346411554 0.53897705741981272176 0.59751348840380846816 0.095127767526024614719 0.33891660448561677921 0.050973359295594544704 -0.434566328478604047 0.37578511970905464912 0.37214179788801071691 0.64237949900660029634 -0.19982529795438350173 0.034404282543306394238 0.087913419492372010811 -0.78909976539032122833 0.24204173675543319555 0.1300371443697736773 0.56291355254992403445 -0.5706900680117307223 -0.025139676548512256138 0.0038704720843876863103 -0.57029211408247115767 0.088976564572818148124 0.37633405943588332798 0.29964577343626330741 0.042003444135232159695 -0.33302817549674673669 0.18947766044969799326 -0.24896805159609333713 0.23898087065270345875 0.21741185177274746643 -0.10636570133622136325 -0.025347120106421424518;-0.057642457889178336239 -0.19400014971160770005 0.1185228747623996437 -0.056000612286537958251 0.28189192064275964134 -0.013420369034533271776 -0.25899461447005578396 0.24390416961785602035 -0.23849649284021159912 0.34232264784807275859 0.19554924636945208993 -0.17193756597747236747 0.14498186120821016099 0.2514139062793360746 -0.17095084462676671255 -0.067152084983262125273 -0.017760397229673728636 0.31172849253076717613 -0.26065817849871586454 -0.367956023253715514 -0.16700637583734948 0.37859850871037331599 -0.12991467814062018782 -0.24028139846235777033 0.12187992850649065346 0.037139184482907414142 0.085102057427879809759 -0.3382610524449516376 0.26087213511703488678 0.32360136291788510476 0.068785457575406910857 -0.29695611569392765805 0.18313234237368974933 -0.12615713317416732409 -0.048770783665840151955 0.095811574301318050417 0.1371207846631060101 0.30223929170798985444 0.18606513469041688347 -0.14698725702615170197 -0.09807488687189883092 0.001280751116078556167 -0.46128516619640380636 -0.26762158534154484313 0.1663691278985049149 -0.00041977356662506524858 0.23785416766748471162 -0.37687710529171164486 -0.19242059024384652877 -0.22475342432133646464 0.13444803660625129216 0.057999321766693603952 -0.13546014241285070367 -0.16258777792564846343 0.074573095021713206587 -0.26563284190855973588 -0.4311732171501477251 -0.40278271409164417838 -0.028162589146803675144 0.14286898539974479672 -0.45915642539116041654 0.49299516464993059506 -0.22239106940369873788 -0.078578466270335878274 0.38165445113124313314 0.72850467170716426413 0.063476742940000788207 -0.24837967852684147974 -0.36399513595258459198 0.15914399858671640642 0.3378694059888768253 0.02901300643656690853 -0.066464898996288157562 -0.1271985328360562828 0.30322007283236185327 -0.036844548568742252481 -0.13228108583651845831 -0.27078947649333617864 0.063939295760872608132 -0.11949088578741023925 -0.14032723966266266724 0.1304418103329809675 -0.088454421486607592851;0.27556963826641855952 -0.0099179266178681408511 0.039467801219036584282 0.2016691135319805539 -0.050681460261385403998 0.2206672696985619575 0.098704999114433131235 0.1711578388043549781 0.15301328887675880175 -0.01780897645679278829 -0.10386779774233963203 0.21751700070113993979 -0.065023411720416299242 -0.034992163633482516183 -0.12924160991356656303 0.09757385210552464716 -0.20535950782969752959 -0.16997545843357128592 0.29189356289160073299 0.02605787090112603524 -0.29425328339672907063 -0.012494280095476154729 0.07483460922701806739 0.26898817679889458487 -0.25715183856037937549 -0.20288711719330723704 -0.14154099806085232438 -0.030828191347909823794 0.093733814562319675567 -0.072041364713309560819 -0.19643869297012359065 -0.091672714325507415056 0.036953100070666371202 0.15769433205442726087 -0.098458226383906360946 -0.15979565497569964139 -0.13682905550326310284 0.19597694674571880524 0.2741314448772158574 -0.068140651712816871499 -0.18022642682939674086 0.16352085960546455801 -0.050890489732752890173 0.27108955924607003318 0.32730415012747493542 0.18126554436730810127 0.13131575705078807337 -0.016336989184355346638 -0.10583059516296340619 -0.14472574896863060756 -0.27183915462883656566 0.19630013706732557521 -0.069991731307888285785 -0.046060398976661559578 -0.031993414400769810968 0.088945798767777584093 0.3369872649080523086 -0.033432792592539575804 0.0083837959868870732399 -0.053977419384845778949 -0.1955358079140919747 -0.078514074334131267463 0.31437084549462968042 0.11347069544035336131 -0.15249796728067976925 -0.3216017781722457225 -0.13788381787043083038 0.2189826501704217887 -0.010411848157934184417 -0.035848096670515632034 -0.012969333813722967036 -0.066439187648141856402 -0.28014756594128559231 -0.3121229317182805385 -0.11293069750920670113 -0.12911920406593471733 -0.23610393696829651278 -0.097297573077500351668 0.17426988101002022225 -0.22713467235010392775 -0.26524932904792691835 -0.14002722987324819903 0.010899384782214197737;0.060929037694099602573 -0.035655308062200352648 -0.14413750688447929393 0.10848089152767920185 -0.11762355434020754785 0.092414713179877594484 0.28990137203136784327 -0.1178955689849037064 0.092326923531265550626 -0.24789942876724985199 -0.081591733762931689666 -0.0031818718657455986529 -0.44576029130290534264 0.21764103804229112393 -0.16972046887222677625 0.094294693500615076043 0.30594129860045676805 -0.052938451331491435947 -0.29655773409527075302 -0.23527412661778829284 0.16908242553473942782 -0.11550167014644435737 -0.14417324781656970512 -0.031013742323506694049 0.0035542484055874714634 -0.11501105252160764847 0.17761567146647228022 0.29795719317967506168 0.2342868927440431015 -0.068902345577347062777 0.14857737798480086244 0.33026172263597108891 0.026450957314452266944 0.3284554230144173248 -0.18158543705218999076 -0.13211143544988385168 -0.21572671451372729678 0.040306511524065974372 -0.19866804876525623325 0.1531209888718297607 -0.35365358949740643979 -0.18036728007120469974 0.063739410158487885827 -0.14808941264143443695 -0.16674613464271453855 -0.1551406546109031781 -0.081074262668361124495 -0.014893969968298718942 -0.21437486865304758443 0.016571566054101715543 -0.012317287967056335732 0.37533523589003381371 -0.14521514947233779558 -0.069090895079480824092 0.18590231954200772679 -0.21033151714962733392 -0.37244307604651871735 -0.21549618237048046021 -0.03539309629464269108 0.053749410380177456426 0.22591958437242926072 0.062870515125169945669 0.15310422687956457 -0.42874565286875776504 0.091277167786615473477 0.1542827536244227582 0.10363992876725129644 0.25089989580594401763 0.31954159013389771271 -0.034172773529031967576 -0.18134014640625917281 0.24204897555970356082 0.093342909177229718698 -0.29544533423157698371 0.15650556241872537466 -0.064539477027452038516 0.048153075240256706935 0.099480113637818848304 -0.18049432294421838274 -0.15259433591403892549 0.20510009998359846062 0.28406184785817339966 -0.12052054820627161602;0.25420528629107391749 -0.068541667217392590605 -0.05647747064890930313 0.32653401442373702901 0.19529662546931411682 0.27180714961278329422 0.077376713625483331538 0.31088725773958220122 -0.0057817336345504953196 0.048174223440121635709 0.042752123665017113807 0.17027370535155578191 0.49899668342125141907 0.098289771685218324526 -0.10110140484779320258 0.059166502940398262023 -0.016989330750976777695 -0.069061061031678736 -0.10286683119364137262 -0.058874749538314494202 0.2132731215296267413 0.16990970213312722725 0.3251314776610376156 0.20455133802342786997 -0.041579155109485503583 -0.062989843361574857084 0.25392269842117537459 0.024579662398331605933 0.035034274507458169901 0.19768074724712492163 0.10617594826472842584 -0.12994507277423233971 -0.031424170903391439313 0.28910494271370867914 0.1500717729263301714 0.39514062880210515383 0.059195191824067495967 0.21888017200675044527 0.16963350528445558796 0.15637341456213166291 -0.076608242089032690947 -0.096123927995443822492 -0.070538168793510311327 -0.21705050246543361459 -0.036567034619292261566 0.21247789376619571899 0.36879370756499596506 0.014569097957330448892 0.10070758211902165746 0.41804696434554289297 0.19302671733836318513 0.028356829359131349722 -0.027186962758838112419 0.076864289172801872341 -0.10603630628467032582 -0.043100047308936205448 0.1812996289892256363 -0.0050386839023329969139 -0.012042467913982430813 -0.17617462729968033641 0.15185669875929883044 -0.22911534929134830252 -0.15868286903308076452 0.18511055708798604402 0.15481447678352369679 -0.055159315870909900181 0.17043617757573117921 0.29641738794583943895 0.19879889175608436713 -0.30119713816329923839 0.046393220426970860348 0.47892389258254919326 -0.20179017483504413377 0.40889216237722803005 -0.15202302415623045184 -0.22518927085945930622 -0.081544374534857591574 -0.2599174470143852389 0.23377447494952333096 -0.0099086185836936221949 0.075723602074722659583 0.010422390375040474497 0.29705411300236267413;-0.046673288313245339665 -0.12032768016242946507 0.22307380142777355481 0.2176247876040817153 0.12971262209361239526 0.023823342905472739278 -0.25605910351881977505 0.17478772868950667729 -0.19178776428885513372 -0.11779577276576642941 -0.1538034649543401633 0.15061098547404422332 0.066165555820295901546 0.094009936836075821964 -0.21671417598193593035 0.21946544667317363642 -0.27492254766263013455 -0.15134252819230603615 0.077388812648993499099 0.092291007815357012367 -0.060167777035060238111 0.05582060623603833649 0.28886576068001357243 -0.19839431650010294628 -0.015083495612524061569 0.0027372976645411951566 0.04431099690435284788 -0.096926687855925841575 0.1625642883320694565 -0.025559254635124879773 -0.019359192165612704867 0.19755785280901883016 0.30637210755664656681 0.20022170023239435621 0.21543010017058633609 0.15308981890937947701 0.14170382871774614419 0.087049661521583235335 0.12317670095369873118 -0.092367689172797362573 -0.051471420164516452911 0.078505204562717631478 0.0098435091877180237036 -0.17598988593773912115 0.20974742934938539474 -0.037590746962888152427 -0.10623700349676949706 -0.090810550100267048435 -0.079246875132570990252 0.047581099760725505121 -0.11665723130785046746 0.027982558190239280316 0.030638178951868877409 0.026082872771660173261 -0.17049435794172673742 0.14927049346936280272 -0.17197532651885039101 0.17348173256988774771 -0.15659638571493628145 0.077489770989203343721 0.22044731366906861192 -0.051292307393398212101 0.10626861609375017059 -0.11879506804267758735 -0.24163629495782440459 0.18258598397525149792 -0.11277354309353090911 -0.14817835611558369258 -0.086995370362065782555 -0.19476235718184123358 0.013272006460221022137 -0.036047054461786590118 -0.17745931874164436182 -0.14847832240689612382 0.17692552758932980628 0.19611904297202600866 0.26035558744927234098 0.20474019472299356814 0.084671314667030525558 0.13924122891675860814 -0.1735653921742682515 -0.14820894359116865147 -0.057542830369626443709;-0.42211260047366216952 -0.0504614115214556333 -0.13204800685619111356 -0.15981547324733361148 -0.047657278726121035661 -0.51327361535660576131 0.040785646288952252803 0.10767315945755169537 0.10311881122578225867 -0.021413628360589805066 -0.38017979093844700422 0.13888215511174034633 0.37841412959624415313 -0.16539622945946863553 -0.21438189505905475007 0.59481813009228257094 -0.41671271125153946935 -0.36739337807255423307 -0.24899055266049441304 -0.56571426131189161968 -0.069042098294625126043 -0.23841389647041624777 -0.31625216848310760964 -0.20900805205059347358 0.50891935367184160111 -0.23027198630047998607 0.60700899427248389273 -0.20461495875833521363 0.52021653504507714416 0.70684244791229655647 -0.30140079632514676922 0.39882834972589825684 0.29990315729763955543 0.13448101649444124672 0.039703793908761150777 -0.43059475991913093162 0.44817933624831324257 0.40975218891799369825 0.47546181642222928865 0.14913193693014636931 0.38188459353601078572 -0.22359419868822799637 -0.65874757695966112969 -0.20387411008616262986 0.13030271529638778882 0.059067815165692288959 -0.17756422450472927888 -0.070141465475959077769 -0.14484261854209529163 -0.12224392832306052448 -0.32727675684285928437 -0.3372068314229265118 -0.3359967227979276938 -0.32036583179800942611 0.15464116878011333056 -0.80269679369207747044 -0.52923484261299369447 -0.85605062083359140246 -0.43630902260995169106 0.007550970328301279122 -0.62075083498577587893 0.13832290906504532413 -0.10231513039410901345 -0.64233797082391130839 0.52356725341926158013 0.65831351398666915209 0.64248845448351654674 -0.29317466888106630263 0.48277701932411437591 0.32008411156817251353 0.086961591466917134707 -0.075093661597522412543 0.56160364561677533768 0.11475196051157578181 0.54696163666962926975 -0.17430478818965686183 0.50625112954754980521 -0.047449987464531530323 -0.3498491212544308504 0.24896569374369253991 0.11331916583190557168 0.16128986161715705427 -0.14852248652201066603;0.26351948215366860495 0.074101441195668263373 -0.039834612050196289978 -0.19089760765963606493 -0.012544113600956927415 -0.043856156870973848905 0.015384632408298119788 0.0045244855495741847368 -0.059910981426060633259 -0.22542464172841472636 -0.0016343994560946359385 -0.13603478262114854225 0.26361709642054886871 0.058323893534090051616 -0.017742351158979336595 0.12742565627150695406 0.19194083817712773166 -0.0050874758873441965415 -0.18986705136526291215 -0.26974620023055689844 -0.016524863141594584026 -0.02672517902349642524 0.0094014697374989412287 -0.0052927671218204680806 0.039836851589517448258 0.020591788058466422434 0.097040128981615708659 0.084790249545193069336 0.18451270592645496738 -0.1646687781658493499 -0.0064630762689893983541 -0.18780009611091780242 -0.0035401812863265725781 -0.070755627944129609319 -0.40026739639531538906 0.014402598290581377499 -0.47033672146708632722 -0.026787075824514644529 -0.13489666235536382222 0.418010566312745524 0.069294711142259893255 -0.279426599542790699 0.15825112940323884936 0.019055804046331229623 0.2464016977141198772 -0.62449561527859653864 -0.30951133804966579621 -0.0075086016399019215456 -0.23511387952850026917 0.44106140656431891411 -0.30118372959918621179 0.14231356283137627794 -0.29632825677280172361 0.042666640735441227483 0.21706392402060428748 -0.033342406168451750592 -0.1150955320709108054 0.095642929229003387226 -0.012735826334721665754 0.01726290167296307132 -0.026649088800732505938 -0.18716708978930185481 0.019334288029335434944 -0.08989015967968896903 0.016593862248045227609 -0.063465647311167786015 -0.010657140989810685514 -6.2249788509203575482e-05 0.01431580339387391633 0.028606845320103335001 0.10042762108589842196 -0.27180652423374995763 0.089255410206006149942 -0.12207817353417065032 0.47909215776935881737 0.23514552404293354027 -0.40568684519592862481 0.1991292112687911009 -0.29429067609417658424 0.09386405628784515176 0.11645311110584555259 0.12947013966191173173 0.23726462943526782645];

% Layer 2
b2 = [-0.4716697056052782111;-0.68705049470788293053;-0.49739746326550188238;0.25719660275940259275;0.12263171340716559621];
LW2_1 = [-0.54909669728643228925 1.1616116437536330164 -0.56983728339790196138 -0.25639180493850477482 0.77815258756880278934 0.60473891423766290565 0.47519743800589964167 0.97284969201755455703 -1.4352976692986822993 -1.2130188654264781878 1.4615001647871752599 -1.1552652530530518327 1.217050219891427254 -1.0103140588316508186 -0.39198150413949478521 -1.24288495425996115 -0.36432535076694300136 0.6650896961934721352 0.54093974295142566167 -0.10866890651566751824 -0.37315313131698507609 -0.14540976358761076304 0.04033382388145954206 0.57604097968573364508 -0.70786623679863713843;-1.0998459412265026991 0.8911005101664761785 -1.7756093278793434465 -0.18539852533770295739 -0.79317813021177829835 -2.829192818902998674 -0.82911684620141679058 0.38646789836509071181 1.4113205722082136084 0.068697341731977293322 -0.26131441087861939643 -0.18686016635138080755 -1.3811574610116743589 0.033043552357302878597 0.48818206056469082288 1.1530332969615231242 0.66654137745126040837 -0.54076888161285363577 -1.0538237453818843914 -0.079238374144050369163 -0.078131033975024966054 0.57789639045491636438 0.81364246199543088789 -1.5971899155393418646 -1.2725996874821494664;-0.12340752704148744145 -0.46001816738462247836 -0.58461849263629594997 0.72939537872736515123 1.0613832589915013216 2.169510561350012523 -1.1095634820537267906 1.1346266628418706368 -0.43265431063362641551 -0.86327828604930367806 0.66748542676309685628 0.62536668651787907791 -1.2834616358457986429 -0.82389306256921612803 0.17612401307835484632 0.16802574810442727493 0.42450052062339144188 -0.44221722772153021497 1.0965443123434452932 0.34070340422011574644 0.49172062186408760365 0.56003928930452884227 0.96224450793863691711 1.0483098566546678043 -0.51724856097129756627;-0.16436399025824022235 -2.2792116305336138637 -0.7063838261378821981 0.68161702897738751794 0.99277137561045425418 0.11439587313393075052 0.71666035452918908089 -0.11665411284212565124 1.3725043442858997356 0.51927836494083567942 0.54687670972448498841 -1.3345108034556958376 1.5998992155899980361 2.365103671452716938 1.0945719223878676019 2.0084754783628335773 -0.5958229592473450742 -1.6868267634150133638 0.69793298670739889467 -0.21890562107950811699 0.74737563836323439581 0.1391765726934603431 -0.11889232874331648326 2.063223524251164509 0.73013446425685679664;0.76009410458314941028 2.0749326059178896386 0.59574682833428560524 -0.93508446590114757679 -1.0679663107352987961 -0.11666388560120678763 -0.99725940638066379318 -2.1138890937874856846 -2.5213179982135023316 1.5615377801893912668 -0.87418267661840132199 1.5927774654031021662 1.837053658187864702 -0.89970554293342519525 -0.37007125373257276912 -1.5962978221772279319 -0.38951436710975789746 1.5160991809057808855 -1.093435007535079162 -0.38283764581679124994 -0.15670773428833023599 -0.48215068060816990148 -1.0572013525152987867 -1.2486657650496546523 1.6597067588677918426];

% ===== SIMULATION ========

% Format Input Arguments
isCellX = iscell(X);
if ~isCellX
    X = {X};
end

% Dimensions
TS = size(X,2); % timesteps
if ~isempty(X)
    Q = size(X{1},1); % samples/series
else
    Q = 0;
end

% Allocate Outputs
Y = cell(1,TS);

% Time loop
for ts=1:TS
    
    % Input 1
    X{1,ts} = X{1,ts}';
    Xp1 = mapminmax_apply(X{1,ts},x1_step1);
    
    % Layer 1
    a1 = tansig_apply(repmat(b1,1,Q) + IW1_1*Xp1);
    
    % Layer 2
    a2 = softmax_apply(repmat(b2,1,Q) + LW2_1*a1);
    
    % Output 1
    Y{1,ts} = a2;
    Y{1,ts} = Y{1,ts}';
end

% Final Delay States
Xf = cell(1,0);
Af = cell(2,0);

% Format Output Arguments
if ~isCellX
    Y = cell2mat(Y);
end
end

% ===== MODULE FUNCTIONS ========

% Map Minimum and Maximum Input Processing Function
function y = mapminmax_apply(x,settings)
y = bsxfun(@minus,x,settings.xoffset);
y = bsxfun(@times,y,settings.gain);
y = bsxfun(@plus,y,settings.ymin);
end

% Competitive Soft Transfer Function
function a = softmax_apply(n,~)
if isa(n,'gpuArray')
    a = iSoftmaxApplyGPU(n);
else
    a = iSoftmaxApplyCPU(n);
end
end
function a = iSoftmaxApplyCPU(n)
nmax = max(n,[],1);
n = bsxfun(@minus,n,nmax);
numerator = exp(n);
denominator = sum(numerator,1);
denominator(denominator == 0) = 1;
a = bsxfun(@rdivide,numerator,denominator);
end
function a = iSoftmaxApplyGPU(n)
nmax = max(n,[],1);
numerator = arrayfun(@iSoftmaxApplyGPUHelper1,n,nmax);
denominator = sum(numerator,1);
a = arrayfun(@iSoftmaxApplyGPUHelper2,numerator,denominator);
end
function numerator = iSoftmaxApplyGPUHelper1(n,nmax)
numerator = exp(n - nmax);
end
function a = iSoftmaxApplyGPUHelper2(numerator,denominator)
if (denominator == 0)
    a = numerator;
else
    a = numerator ./ denominator;
end
end

% Sigmoid Symmetric Transfer Function
function a = tansig_apply(n,~)
a = 2 ./ (1 + exp(-2*n)) - 1;
end
